tree
version=v4
num_class=1
num_tree_per_iteration=1
label_index=0
max_feature_idx=8
objective=binary sigmoid:1
feature_names=Gender Age Region_Code Occupation Channel_Code Vintage Credit_Product Avg_Account_Balance Is_Active
feature_infos=[0:1] [23:85] [0:34] [0:3] [0:3] [7:135] [0:2] [20790:10352009] [0:1]
tree_sizes=2748 2813 2823 2832 2821 3327 2934 2927 2939 3332 3043 3321 3059 2961 3037 3048 3053 3046 3359 3251 3351 3362 3368 3362 3168 3172 3165 3162 3379 3068 3465 3155 3363 3365 3572 3282 3577 3481 3477 3580 3587 3584 3460 3581 3483 3578 3572 3491 3591 3598 3570 3571 3268 3597 3463 3571 3365 3290 3591 3476 3567 3485 3365 3459 3458 3243 3256 3478 3389 3370 3368 3372 3368 3053 3260 3153 3158 3146 3473 3470 3466 3588 3027 3271 3360 3057 3593 3071 3038 3286 3385 3400 3374 3162 3396 3402 3401 3191 3076 2732 3298 3301 3632 2751 2951 3073 2737 3089 3296 3305 2958 2853 3403 2740 3053 2630 2651 2316 2957 2526 2542 3289 3052 3048 2419 3483 3191 2632 3330 2408 2496 2975 3377 2640 3059 2209 3514 3188 3292 2635 3063 3153 1888 2529 3058 3617 2840 2631 3278 3600 3041 2949 3147 2855 3495 3183 2817 2847 2290 3262 3285 2645 2872 2520 2714 3306 3480 2291 3497 2644 2952 3267 2507 2320 2302 3513 3505 3383 3365 3261 2296 2974 3275 3263 2847 2910 3149 2512 3150 3522 2617 3251 2871 2613 3281 2608 3388 3170 3184 3285 2612

Tree=0
num_leaves=25
num_cat=0
split_feature=6 6 1 5 5 8 5 8 5 1 3 8 3 3 3 1 1 3 1 3 5 1 1 3
split_gain=94673 21474.3 7653.86 5393.45 2682.34 1669.46 913.041 692.759 470.389 264.162 282.874 233.103 229.024 219.963 116.877 116.829 48.4679 60.3911 42.359 210.221 44.0954 32.9261 30.5145 21.7362
threshold=1.0000000180025095e-35 1.5000000000000002 33.500000000000007 65.000000000000014 68.500000000000014 1.0000000180025095e-35 101.00000000000001 1.0000000180025095e-35 83.000000000000014 37.500000000000007 1.5000000000000002 1.0000000180025095e-35 1.5000000000000002 2.5000000000000004 2.5000000000000004 27.500000000000004 48.500000000000007 2.5000000000000004 54.500000000000007 2.5000000000000004 59.000000000000007 81.500000000000014 33.500000000000007 2.5000000000000004
decision_type=2 2 2 2 2 2 2 2 2 2 2 2 2 2 2 2 2 2 2 2 2 2 2 2
left_child=3 -2 7 9 5 -4 8 12 14 10 22 -10 -3 -6 -5 -9 17 -8 19 -11 -20 -18 -1 -12
right_child=1 2 4 6 13 -7 16 15 11 18 23 -13 -14 -15 -16 -17 21 -19 20 -21 -22 -23 -24 -25
leaf_value=-1.3540495904079792 -1.0897724061434504 -1.3283038491529431 -1.2220331607623787 -1.2520292372637623 -1.1379678087225691 -1.1615250334177252 -1.2073732772802828 -1.2748967396641719 -1.2061510884486926 -1.2857842440526299 -1.327631547021209 -1.2451621107417017 -1.2828611512777965 -1.160169364960548 -1.2820540162098355 -1.1943175972001412 -1.3126458066835582 -1.295826463126504 -1.3295231029484675 -1.3211263864076961 -1.305838060226215 -1.2597536872736399 -1.3323196808370079 -1.3352808165522345
leaf_weight=1523.9143467694521 8329.4717781990767 337.81518653035164 3333.0358576029539 538.64551797509193 2407.3486630618572 1745.2270340919495 23.349245339632034 57.889644429087639 622.02254846692085 514.30475890636444 5610.5058596283197 1047.7229157835245 1512.3356053233147 2482.9903422296047 829.70631249248981 242.45763406157494 744.81622435152531 83.805809244513512 1117.1784081310034 2271.4882565289736 237.62863464653492 28.569705486297607 188.63613300025463 1130.9860873222351
leaf_count=8687 15329 1799 12570 2266 6121 5037 80 262 2199 2418 29814 4304 7047 7119 3856 813 3795 406 5968 11855 1187 122 1016 6137
internal_value=-1.22349 -1.15158 -1.1941 -1.31254 -1.17564 -1.20119 -1.26132 -1.27968 -1.24834 -1.32848 -1.33354 -1.23052 -1.29117 -1.14917 -1.27017 -1.20951 -1.30617 -1.27499 -1.31812 -1.31459 -1.32537 -1.31056 -1.35169 -1.32892
internal_weight=36961.9 20448.6 12119.1 16513.3 9968.6 5078.26 3918.64 2150.5 3038.1 12594.6 8454.04 1669.75 1850.15 4890.34 1368.35 300.347 880.541 107.155 4140.6 2785.79 1354.81 773.386 1712.55 6741.49
internal_count=140207 56097 40768 84110 30847 17607 17028 9921 12625 67082 45654 6503 8846 13240 6122 1075 4403 486 21428 14273 7155 3917 9703 35951
is_linear=0
shrinkage=1


Tree=1
num_leaves=25
num_cat=0
split_feature=6 6 1 5 5 8 5 8 5 1 3 3 8 8 3 1 1 3 1 3 5 1 1 5
split_gain=74481.3 14702.2 5890.02 4794.5 1935.93 1305.58 771.451 574.571 382.482 245.946 268.951 203.753 182.397 147.759 98.1394 91.159 43.0845 50.7591 38.9235 189.039 40.5878 29.4209 29.1735 21.4732
threshold=1.0000000180025095e-35 1.5000000000000002 33.500000000000007 65.000000000000014 71.000000000000014 1.0000000180025095e-35 101.00000000000001 1.0000000180025095e-35 83.000000000000014 37.500000000000007 1.5000000000000002 1.5000000000000002 1.0000000180025095e-35 1.0000000180025095e-35 2.5000000000000004 27.500000000000004 48.500000000000007 2.5000000000000004 54.500000000000007 2.5000000000000004 59.000000000000007 33.500000000000007 81.500000000000014 59.000000000000007
decision_type=2 2 2 2 2 2 2 2 2 2 2 2 2 2 2 2 2 2 2 2 2 2 2 2
left_child=3 -2 7 9 5 -4 8 11 14 10 21 -3 -10 -6 -5 -9 17 -8 19 -11 -20 -1 -18 -12
right_child=1 2 4 6 13 -7 16 15 12 18 23 -13 -14 -15 -16 -17 22 -19 20 -21 -22 -23 -24 -25
leaf_value=-0.043641022397763678 0.18479281648508772 -0.018239282482582456 0.079233291105587411 0.052667670398742442 0.13089799786093778 0.12989532701932852 0.092177195286749156 0.032135042872079488 0.09242824556167617 0.022062509475513928 -0.0190195677121275 0.024755748875158551 0.058741246059418717 0.14873730403117028 0.025500814909938743 0.1024214138128597 -0.0031621017958505674 0.012740097768741833 -0.019421687132567665 -0.011291080383766 0.003306654230096049 -0.022155268565506869 0.046004071180180101 0.024401643007889343
leaf_weight=1484.743573948741 9370.7279018610716 334.12974789738655 3601.0526619851589 556.37098559737206 2570.9546958953142 1981.5858403146267 24.714550703763962 59.034837394952774 658.82840725779533 521.26241087913513 6638.666625469923 1535.3346104621887 1086.3266055136919 2577.2415604293346 842.7088974416256 258.44164630770683 743.39416515827179 84.455964833498001 1104.207468688488 2256.0784775167704 238.10479533672333 186.14277966320515 29.38325035572052 26.910793483257294
leaf_count=8687 15329 1799 12891 2266 6678 5250 80 262 2199 2418 35823 7047 4304 6028 3856 813 3795 406 5968 11855 1187 1016 122 128
internal_value=0.0775164 0.137107 0.102491 -0.00307319 0.117731 0.0972575 0.0443457 0.0276713 0.0559305 -0.0184052 -0.0233438 0.0170592 0.0715532 0.139885 0.0363663 0.0896455 0.00300954 0.0321049 -0.00840469 -0.00501916 -0.0153906 -0.0412781 -0.00117431 -0.0188367
internal_weight=38770.8 22288.5 12917.8 16482.3 10730.8 5582.64 4026.18 2186.94 3144.23 12456.1 8336.46 1869.46 1745.16 5148.2 1399.08 317.476 881.948 109.171 4119.65 2777.34 1342.31 1670.89 772.777 6665.58
internal_count=140207 56097 40768 84110 30847 18141 17028 9921 12625 67082 45654 8846 6503 12706 6122 1075 4403 486 21428 14273 7155 9703 3917 35951
is_linear=0
shrinkage=0.05


Tree=2
num_leaves=25
num_cat=0
split_feature=6 6 1 5 5 8 5 5 4 4 3 3 3 8 3 3 3 5 1 3 1 1 3 1
split_gain=60434.5 10947.6 4698.78 4272.82 1618.52 1043.67 656.913 315.739 285.633 277.45 260.56 221.634 167.563 146.398 83.0946 48.9692 276.71 44.6808 39.3808 116.837 29.9325 28.5693 24.437 17.4802
threshold=1.0000000180025095e-35 1.5000000000000002 31.500000000000004 65.000000000000014 65.000000000000014 1.0000000180025095e-35 101.00000000000001 83.000000000000014 1.0000000180025095e-35 1.0000000180025095e-35 1.5000000000000002 1.5000000000000002 2.5000000000000004 1.0000000180025095e-35 2.5000000000000004 2.5000000000000004 1.5000000000000002 23.000000000000004 51.500000000000007 2.5000000000000004 34.500000000000007 81.500000000000014 2.5000000000000004 38.500000000000007
decision_type=2 2 2 2 2 2 2 2 2 2 2 2 2 2 2 2 2 2 2 2 2 2 2 2
left_child=3 -2 9 8 5 -4 7 14 10 11 20 -3 -6 -9 -5 16 -10 -11 19 -8 -1 -20 -12 -17
right_child=1 2 4 6 12 -7 18 13 15 17 22 -13 -14 -15 -16 23 -18 -19 21 -21 -22 -23 -24 -25
leaf_value=-0.043182795219004477 0.16084550455217769 -0.028356535710992795 0.068907145280330512 0.048592997448410363 0.13078129031480196 0.11427690905572374 0.094345472903832273 0.083583622640455935 -0.0085690261554366848 0.049718848899279737 -0.016929089353755176 0.020165945328101786 0.11358695852620034 0.054016100137929263 0.023876381249032873 -0.019744098242631208 0.054186264461932476 0.093238542855095599 -0.00547508591402532 0.0029670023776612892 -0.026048200534604382 0.042802227997848823 -0.024918305057388016 -0.0087980351743837254
leaf_weight=1432.4659606963396 10203.677871540189 282.72643783688545 3658.9074933975935 572.60576555132866 2984.2854502648115 1953.8167752027512 41.704984739422798 691.43131595849991 1139.2060345709324 169.39860463142395 5397.0057553201914 1357.0441031455994 3099.2529676109552 1121.5098972767591 854.85656243562698 437.75751276314259 205.54941968619823 99.528974488377571 636.26056215167046 175.07964050769806 324.98131999373436 30.136169672012329 1178.0886955857277 2207.2541715800762
leaf_count=8606 15329 1566 12843 2266 6535 4904 134 2199 5941 693 29300 6147 7746 4304 3856 2399 886 334 3277 870 1788 122 6539 11623
internal_value=0.0707745 0.121688 0.0923008 -0.00293937 0.104169 0.0847369 0.0411044 0.0515172 -0.0176828 0.0195366 -0.0229497 0.0117742 0.122063 0.0653753 0.0338474 -0.00667666 0.001091 0.0664147 0.00286781 0.0212728 -0.040049 -0.00316552 -0.018368 -0.0106239
internal_weight=40254.5 23808.6 13605 16445.9 11696.3 5612.72 4123.58 3240.4 12322.3 1908.7 8332.54 1639.77 6083.54 1812.94 1427.46 3989.77 1344.76 268.928 883.181 216.785 1757.45 666.397 6575.09 2645.01
internal_count=140207 56097 40768 84110 32028 17747 17028 12625 67082 8740 46233 7713 14281 6503 6122 20849 6827 1027 4403 1004 10394 3399 35839 14022
is_linear=0
shrinkage=0.05


Tree=3
num_leaves=25
num_cat=0
split_feature=6 6 1 5 5 8 5 4 4 5 8 1 8 8 5 1 1 5 1 5 2 2 7 2
split_gain=50167.6 8660.54 3835.23 3815.93 1183.43 818.813 563.163 466.758 265.398 263.968 173.082 131.093 119.974 104.932 56.7148 35.2228 29.8788 49.3764 25.4768 19.3652 17.7353 10.6968 10.0418 4.55305
threshold=1.0000000180025095e-35 1.5000000000000002 33.500000000000007 65.000000000000014 71.000000000000014 1.0000000180025095e-35 101.00000000000001 1.0000000180025095e-35 1.0000000180025095e-35 83.000000000000014 1.0000000180025095e-35 62.500000000000007 1.0000000180025095e-35 1.0000000180025095e-35 71.000000000000014 51.500000000000007 32.500000000000007 29.000000000000004 81.500000000000014 59.000000000000007 8.5000000000000018 32.500000000000007 797324.00000000012 28.500000000000004
decision_type=2 2 2 2 2 2 2 2 2 2 2 2 2 2 2 2 2 2 2 2 2 2 2 2
left_child=3 -2 7 8 5 -4 9 10 19 14 -3 -6 -11 -9 -5 20 22 -18 -17 21 -8 -1 -10 -21
right_child=1 2 4 6 11 -7 15 13 16 12 -12 -13 -14 -15 -16 18 17 -19 -20 23 -22 -23 -24 -25
leaf_value=-0.022904662695683801 0.14326126451877061 0.0076208827521115742 0.065906569285005323 0.018136054217253197 0.11537600618446182 0.10402258372368137 0.050354053072960828 0.054078744980968513 -0.012988612952708645 0.07615594659655775 0.055572513917726933 0.096293905239243971 0.049857236078017265 0.10888699739521922 0.038893558504007442 -0.0052190800574846014 0.0026921024802137161 -0.0094171831714658493 0.039911763109310022 -0.0053301898731891121 0.01319800443571585 -0.016937688509503151 -0.031826750307985152 0.029158252785787864
leaf_weight=7311.9816596657038 10864.650969356298 1625.5546219646931 3895.8698078393936 515.91025060415268 4591.6933542340994 2227.004865989089 37.77538888156414 286.83707298338413 159.83869206905365 720.32986190915108 210.93593828380108 1228.7134342491627 1153.6091783642769 130.50699827075005 937.79283607006073 634.25063952803612 1300.2069113403559 2381.4358498156071 30.833310842514038 16.223019987344742 181.38615597784519 871.93327952921391 132.70417934656143 19.413146197795868
leaf_count=41222 15329 7727 12891 2275 9809 5250 153 1119 862 2199 747 2897 4304 328 3847 3277 6658 12578 122 85 851 4835 751 91
internal_value=0.0651624 0.109655 0.0839205 -0.00281149 0.0952086 0.0798005 0.0382073 0.0240707 -0.0169841 0.0476269 0.013185 0.111383 0.0600392 0.0716704 0.0315635 0.00273012 -0.00637101 -0.00514136 -0.00300887 -0.0221126 0.0200151 -0.0222734 -0.0216994 0.0140055
internal_weight=41467.4 25061.8 14197.1 16405.6 11943.3 6122.87 4211.89 2253.83 12193.7 3327.64 1836.49 5820.41 1873.94 417.344 1453.7 884.245 3974.19 3681.64 665.084 8219.55 219.162 8183.91 292.543 35.6362
internal_count=140207 56097 40768 84110 30847 18141 17028 9921 67082 12625 8474 12706 6503 1447 6122 4403 20849 19236 3399 46233 1004 46057 1613 176
is_linear=0
shrinkage=0.05


Tree=4
num_leaves=25
num_cat=0
split_feature=6 6 5 1 5 8 5 4 3 5 8 3 3 3 3 3 3 1 1 3 1 1 3 1
split_gain=42385 7166.9 3413.38 3207.31 1065.62 720.991 485.557 246.338 251.5 223.187 212.143 169.348 124.014 105.023 69.8576 45.5546 247.745 40.0148 32.4161 84.1089 29.2657 25.6699 23.4096 15.9842
threshold=1.0000000180025095e-35 1.5000000000000002 65.000000000000014 31.500000000000004 68.500000000000014 1.0000000180025095e-35 101.00000000000001 1.0000000180025095e-35 1.5000000000000002 83.000000000000014 1.0000000180025095e-35 1.5000000000000002 2.5000000000000004 2.5000000000000004 2.5000000000000004 2.5000000000000004 1.5000000000000002 27.500000000000004 54.500000000000007 2.5000000000000004 34.500000000000007 81.500000000000014 2.5000000000000004 38.500000000000007
decision_type=2 2 2 2 2 2 2 2 2 2 2 2 2 2 2 2 2 2 2 2 2 2 2 2
left_child=2 -2 7 10 5 -5 9 8 20 14 11 -3 -6 -11 -4 16 -9 -12 19 -8 -1 -20 -10 -17
right_child=1 3 6 4 12 -7 18 15 22 13 17 -13 -14 -15 -16 23 -18 -19 21 -21 -22 -23 -24 -25
leaf_value=-0.041613212771802584 0.12976119068749575 -0.023652089102180862 0.042682958973209145 0.059093179697946564 0.107952479420916 0.093993569388795467 0.065320852129144791 -0.0078845847230004582 -0.01534387969657691 0.068315273482936756 0.024656051701341618 0.018002799804317508 0.093458978954033919 0.044612802200648963 0.020449158865604659 -0.018705966740760312 0.050962055296359277 0.071882032287523365 -0.007891487472698128 0.0026221151751864092 -0.024440658734205159 0.037289511805920432 -0.02326307014350594 -0.0081630233825423573
leaf_weight=1376.0437408983707 11380.843584418297 293.15104070305824 597.13309618830681 4130.976389080286 3120.3757754266262 2324.4976336061954 63.860885426402092 1129.182510510087 5272.8559554219246 870.93632061779499 62.929999351501465 1408.7314278185368 3180.2112253010273 1057.9382337778807 881.10631833970547 430.80122318863869 210.38307270407677 184.69506707787514 505.24294090270996 284.77097395062447 316.28218343853951 31.479126572608948 1145.9470120072365 2189.0868950635195
leaf_count=8606 15329 1626 2266 13490 6122 5296 228 5941 29300 2773 262 6299 7120 3730 3856 2399 886 553 2640 1413 1788 122 6539 11623
internal_value=0.0603967 0.099964 -0.00268729 0.0768886 0.0860162 0.0716863 0.0355972 -0.0163056 -0.0212954 0.044165 0.0171367 0.0108073 0.10067 0.055377 0.0294779 -0.00607773 0.00142103 0.0601858 0.00259884 0.0144255 -0.0384379 -0.00510772 -0.0167648 -0.00991027
internal_weight=42449.5 26086.4 16363.1 14705.6 12756.1 6455.47 4292.47 12070.6 8111.13 3407.11 1949.51 1701.88 6300.59 1928.87 1478.24 3959.45 1339.57 247.625 885.354 348.632 1692.33 536.722 6418.8 2619.89
internal_count=140207 56097 84110 40768 32028 18786 17028 67082 46233 12625 8740 7925 13242 6503 6122 20849 6827 815 4403 1641 10394 2762 35839 14022
is_linear=0
shrinkage=0.05


Tree=5
num_leaves=30
num_cat=0
split_feature=4 5 5 1 5 5 3 8 1 3 1 3 3 1 1 5 2 5 4 3 5 7 1 3 3 7 5 7 5
split_gain=17324.9 2835.67 2094.9 777.863 685.312 585.333 574.745 324.792 294.291 292.23 268.955 265.462 1275.26 366.858 163.128 116.842 115.199 77.0877 59.1117 50.038 38.5225 19.0217 12.7664 27.0033 35.2149 10.5163 10.3551 7.82214 12.2877
threshold=1.0000000180025095e-35 59.000000000000007 71.000000000000014 34.500000000000007 35.000000000000007 59.000000000000007 1.5000000000000002 1.0000000180025095e-35 31.500000000000004 2.5000000000000004 62.500000000000007 2.5000000000000004 1.5000000000000002 61.500000000000007 64.500000000000014 113.00000000000001 32.500000000000007 83.000000000000014 1.5000000000000002 2.5000000000000004 47.000000000000007 867406.50000000012 71.500000000000014 2.5000000000000004 1.5000000000000002 596704.50000000012 79.500000000000014 778673.50000000012 80.500000000000014
decision_type=2 2 2 2 2 2 2 2 2 2 2 2 2 2 2 2 2 2 2 2 2 2 2 2 2 2 2 2 2
left_child=1 3 4 6 8 10 25 16 18 -10 -6 12 13 -4 -7 17 -5 -13 -2 -8 -9 -17 23 24 -3 -1 -25 -24 -29
right_child=2 22 11 7 5 14 19 20 9 -11 -12 15 -14 -15 -16 21 -18 -19 -20 -21 -22 -23 27 26 -26 -27 -28 28 -30
leaf_value=-0.038695142612946591 0.058321046949399782 0.096488675847266933 0.10066731311613426 0.0070749076980045318 0.043946381357427497 0.072124285576468147 0.00088269102484530085 0.061234546377989932 0.089050838224763076 0.068169615630513117 0.0070425579415778448 0.075645765455133088 0.14120633662648627 0.076169832696554016 0.040065291176205796 0.052390819323652506 0.041473460240767202 0.087913064554908035 0.027836603260856126 -0.011778756144814259 0.02953848025180757 0.070023568784624332 0.10092696213959973 0.075157240205447465 0.1392114599959004 -0.029848077212760289 0.095565303537999538 0.04679381646546641 0.083708294485366555
leaf_weight=521.07767680287361 280.90327209234238 280.99523751437664 2698.6088165491819 1244.4208271205425 3243.873562052846 2714.4042657911777 6730.9693511873484 546.06910987198353 2705.149660795927 4589.2654274106026 583.37166012823582 1845.1181766986847 1292.3032653331757 3659.1489228010178 475.27019228041172 254.2137538343668 300.92950926721096 5454.5082308501005 381.22774541378021 880.54804229736328 123.62242138385773 616.5816648453474 31.579137444496155 213.95923021435738 75.70734615623951 1198.9333075881004 176.97312587499619 56.617594122886658 55.848891869187355
leaf_count=3238 957 567 5036 5719 11378 7529 34121 1680 6585 13438 2511 4637 1552 8862 1619 794 1087 11955 1528 4709 498 1600 64 575 93 7220 359 175 121
internal_value=0.0562832 0.00647862 0.0763984 -0.000162716 0.0629736 0.0515488 -0.00648667 0.0264598 0.0730332 0.0759365 0.0383283 0.0890945 0.095858 0.0865974 0.0673766 0.082739 0.0138202 0.0848346 0.0409113 -0.000584762 0.0554933 0.0650127 0.0922817 0.0953522 0.106306 -0.0325718 0.0848505 0.0752193 0.0663079
internal_weight=43232.2 12438.3 30793.9 11546.6 14973.5 7016.92 9331.53 2215.04 7956.55 7294.42 3827.25 15820.5 7650.06 6357.76 3189.67 8170.42 1545.35 7299.63 662.131 7611.52 669.692 870.795 891.681 747.635 356.703 1720.01 390.932 144.046 112.466
internal_count=140207 60226 79981 58272 45545 23037 49288 8984 22508 20023 13889 34436 15450 13898 9148 18986 6806 16592 2485 38830 2178 2394 1954 1594 660 10458 934 360 296
is_linear=0
shrinkage=0.05


Tree=6
num_leaves=26
num_cat=0
split_feature=6 6 5 1 8 5 5 8 1 5 4 4 8 1 7 1 2 1 5 7 5 7 7 2 1
split_gain=34286.8 6009.36 2586.38 2259.9 816.915 609.964 404.003 179.327 178.377 172.77 155.471 102.715 97.6555 46.0568 34.9545 27.5867 37.1006 27.4045 34.8027 22.6821 14.5897 10.4565 9.16551 3.97685 2.57029
threshold=1.0000000180025095e-35 1.5000000000000002 65.000000000000014 31.500000000000004 1.0000000180025095e-35 71.000000000000014 101.00000000000001 1.0000000180025095e-35 64.500000000000014 83.000000000000014 1.0000000180025095e-35 1.0000000180025095e-35 1.0000000180025095e-35 74.500000000000014 760464.50000000012 48.500000000000007 11.500000000000002 32.500000000000007 29.000000000000004 841721.50000000012 59.000000000000007 1009798.0000000001 797324.00000000012 28.500000000000004 53.500000000000007
decision_type=2 2 2 2 2 2 2 2 2 2 2 2 2 2 2 2 2 2 2 2 2 2 2 2 2
left_child=2 24 10 7 5 -5 9 11 -6 13 20 -3 -11 -4 -9 16 -8 22 -19 -17 21 -1 -12 -22 -2
right_child=1 3 6 4 8 -7 15 14 -10 12 17 -13 -14 -15 -16 19 -18 18 -20 -21 23 -23 -24 -25 -26
leaf_value=-0.021868441337316989 0.11465088013972009 0.0054527279099100155 0.019749248386231155 0.050723777776361459 0.090890556014188995 0.079329956466798648 0.067771338345137516 0.07668944679001119 0.063506439933841918 0.058787268015815623 -0.014701801934198342 0.041834099577149342 0.036228918148469007 0.047122575970994875 0.038244731644826516 -0.016312474006223189 0.0043683968363396539 -0.00081626465945703859 -0.010826139419298194 0.0012401905988290666 -0.0072648070179448382 -0.017971408348263024 -0.032614035307151137 0.024260344426803707 0.11121799490907258
leaf_weight=5267.4339271485806 7468.7141377031803 1489.6996033638716 1386.0226221233606 4468.0730277746916 5117.8662945926189 3223.1862867772579 29.030473917722702 107.97779256105423 698.11919991672039 791.84497268497944 163.61965136229992 221.17670226097107 1264.8799456655979 172.60434459149837 147.31442682445049 280.87090700864792 90.827292516827583 1352.8337800055742 2425.2695017457008 525.68949162960052 16.66695474088192 2687.3209566026926 134.57660092413425 20.352601081132889 4495.3866041749716
leaf_count=30616 9453 7093 5531 13812 9922 6678 93 309 1616 2199 862 832 4304 591 506 1414 393 6658 12578 2503 85 15441 751 91 5876
internal_value=0.0524436 0.0867644 -0.00425406 0.0661724 0.0734621 0.0627299 0.0278997 0.0160687 0.0876273 0.0354447 -0.0163577 0.0102011 0.0449645 0.0228393 0.0549921 -0.00155709 0.0206172 -0.00840506 -0.00724447 -0.00489733 -0.0204108 -0.020557 -0.0229565 0.0104139 0.11338
internal_weight=44047.4 27437.5 16609.8 15473.4 13507.2 7691.26 4541.77 1966.17 5815.99 3615.35 12068.1 1710.88 2056.72 1558.63 255.292 926.418 119.858 4076.3 3778.1 806.56 7991.77 7954.75 298.196 37.0196 11964.1
internal_count=140207 56097 84110 40768 32028 20490 17028 8740 11538 12625 67082 7925 6503 6122 815 4403 486 20849 19236 3917 46233 46057 1613 176 15329
is_linear=0
shrinkage=0.05


Tree=7
num_leaves=26
num_cat=0
split_feature=6 6 5 1 5 5 1 3 3 4 3 4 3 3 5 3 3 5 1 3 1 3 1 1 1
split_gain=29927.4 5343.87 2330.35 1949.59 694.179 354.836 319.587 152.704 847.547 150.698 168.812 144.45 225.696 107.731 74.1093 42.8966 215.571 32.4155 25.5997 59.5517 23.1374 22.5712 21.6882 14.219 1.79852
threshold=1.0000000180025095e-35 1.5000000000000002 65.000000000000014 31.500000000000004 65.000000000000014 101.00000000000001 61.500000000000007 2.5000000000000004 1.5000000000000002 1.0000000180025095e-35 1.5000000000000002 1.0000000180025095e-35 1.5000000000000002 2.5000000000000004 83.000000000000014 2.5000000000000004 1.5000000000000002 23.000000000000004 53.500000000000007 2.5000000000000004 34.500000000000007 2.5000000000000004 81.500000000000014 38.500000000000007 53.500000000000007
decision_type=2 2 2 2 2 2 2 2 2 2 2 2 2 2 2 2 2 2 2 2 2 2 2 2 2
left_child=2 24 11 9 6 7 -5 8 -4 10 -3 12 20 -6 -9 16 -13 -11 19 -7 -1 -14 -20 -17 -2
right_child=1 3 5 4 13 18 -8 14 -10 17 -12 15 21 -15 -16 23 -18 -19 22 -21 -22 -23 -24 -25 -26
leaf_value=-0.03932386868111 0.10678164262434049 -0.026562953644269846 0.033286793541800301 0.060393992771918398 0.085131680828059497 0.052738566751541628 0.026181516774439514 0.013708020944309727 0.16066126607802955 0.03414053452276046 0.016254559320603632 -0.0095297299292355694 -0.013948589334275974 0.07268794886146944 0.032730846668968049 -0.019936564129727236 0.044160353252069545 0.068584891284945965 -0.0099286282087094127 -0.00079848762801560356 -0.02386246730726076 -0.021812882515717245 0.030524251278995815 -0.010075548554139245 0.10367286934309246
leaf_weight=1295.3307731300592 7614.2062958180904 273.30031217634678 1449.6011148691177 5744.4146678298712 3581.9604158401489 62.661749497056007 779.82764248549938 934.96524427831173 141.76097875833511 189.34830829501152 1404.7165053784847 1152.7470188289881 5165.6419655531645 3707.0580238550901 1143.4660293906927 438.96393950283527 221.00960738956928 113.9989807009697 566.90333594381809 262.62756715714931 313.1008752733469 1118.0803902447224 33.19476455450058 2244.0095182359219 4579.2119844257832
leaf_count=8606 9453 1566 4856 15255 6535 200 2492 3856 183 693 6147 5941 29300 7746 3730 2399 886 334 2844 1237 1788 6539 122 11623 5876
internal_value=0.0492496 0.0807617 -0.00406359 0.0615507 0.0682031 0.0261892 0.0563143 0.0331628 0.0448271 0.0151494 0.00925636 -0.0157005 -0.0196418 0.0788255 0.024196 -0.00802647 -0.000838334 0.0474628 -0.00147727 0.0097795 -0.036349 -0.0153547 -0.00759292 -0.0117033 0.105632
internal_weight=44532.1 27988 16544.1 15794.6 13813.3 4595.18 6524.24 3669.79 1591.36 1981.36 1678.02 11948.9 7892.15 7289.02 2078.43 4056.73 1373.76 303.347 925.387 325.289 1608.43 6283.72 600.098 2682.97 12193.4
internal_count=140207 56097 84110 40768 32028 17028 17747 12625 5039 8740 7713 67082 46233 14281 7586 20849 6827 1027 4403 1437 10394 35839 2966 14022 15329
is_linear=0
shrinkage=0.05


Tree=8
num_leaves=26
num_cat=0
split_feature=6 6 5 1 8 5 5 8 1 5 4 4 8 4 5 1 5 1 2 1 5 7 7 2 1
split_gain=26321.2 4846.56 2101.23 1711.99 631.691 440.504 312.344 262.581 151.064 136.786 134.161 114.273 83.3711 44.6702 40.7028 28.0578 31.8932 23.4187 20.759 20.3425 13.7389 9.97012 8.69465 3.60243 1.40627
threshold=1.0000000180025095e-35 1.5000000000000002 65.000000000000014 33.500000000000007 1.0000000180025095e-35 71.000000000000014 101.00000000000001 1.0000000180025095e-35 64.500000000000014 83.000000000000014 1.0000000180025095e-35 1.0000000180025095e-35 1.0000000180025095e-35 1.0000000180025095e-35 71.000000000000014 32.500000000000007 29.000000000000004 54.500000000000007 33.500000000000007 81.500000000000014 59.000000000000007 1009798.0000000001 797324.00000000012 28.500000000000004 53.500000000000007
decision_type=2 2 2 2 2 2 2 2 2 2 2 2 2 2 2 2 2 2 2 2 2 2 2 2 2
left_child=2 24 10 7 5 -5 9 11 -6 14 20 -3 -11 -9 -4 22 -17 18 -8 -19 21 -1 -12 -22 -2
right_child=1 3 6 4 8 -7 17 13 -10 12 15 -13 -14 -15 -16 16 -18 19 -20 -21 23 -23 -24 -25 -26
leaf_value=-0.020340727820345364 0.10018120430450471 0.0054517151436449147 0.0090457489645220084 0.044375106385896868 0.079497347870817026 0.068473048800459235 0.012756467551359197 0.041495037111498781 0.054746829239492791 0.051912633741922433 -0.014407679552733213 0.03800003832945411 0.031435295974173098 0.077304718793811511 0.025830734533680372 -0.00032062513422377451 -0.0099401269623847158 -0.010347173054117432 -0.02292312215915162 0.028690680577954254 -0.006031057306310845 -0.016495498892125749 -0.03194370791753666 0.024168774088186164 0.097307433528666276
leaf_weight=5133.5410735160112 7707.5374253094196 1659.7484816759825 559.4130150526762 4415.9139749407768 5217.8108645379543 3353.8321052342653 324.35240136086941 230.45005811750889 722.65912348031998 820.36709715425968 162.78296011686325 320.1806914806366 1305.0925461053848 150.62313014268875 1034.4510375708342 1345.0272181928158 2397.0602693855762 521.36036905646324 44.657367289066315 33.669460773468018 16.382327318191528 2625.4053746461868 132.70113502442837 20.370686918497086 4633.4116826653481
leaf_count=30616 9453 7727 2275 12891 9662 6678 1419 747 1616 2199 862 1119 4304 328 3847 6658 12578 2640 222 122 85 15441 751 91 5876
internal_value=0.0463941 0.0755489 -0.00388333 0.0574394 0.0642111 0.0547925 0.024614 0.0180945 0.0765066 0.0310745 -0.015068 0.0107496 0.0393819 0.0559908 0.0199593 -0.00766443 -0.00648484 -0.00140063 0.00833323 -0.00788034 -0.0188994 -0.0190444 -0.0224522 0.0110834 0.0991187
internal_weight=44888.8 28412.2 16476.6 16071.2 13710.2 7769.75 4643.36 2361 5940.47 3719.32 11833.3 1979.93 2125.46 381.073 1593.86 4037.57 3742.09 924.04 369.01 555.03 7795.7 7758.95 295.484 36.753 12340.9
internal_count=140207 56097 84110 40768 30847 19569 17028 9921 11278 12625 67082 8846 6503 1075 6122 20849 19236 4403 1641 2762 46233 46057 1613 176 15329
is_linear=0
shrinkage=0.05


Tree=9
num_leaves=30
num_cat=0
split_feature=4 5 5 1 3 5 5 8 3 3 1 1 1 3 1 5 2 5 4 3 5 7 7 1 3 3 7 1 5
split_gain=10159.6 1801.9 1217.74 480.497 489.201 466.82 389.046 217.508 202.097 933.13 247.116 191.993 189.669 208.79 112.063 80.0735 77.4304 57.2621 44.0198 42.9903 22.8127 20.6437 9.66916 9.08667 19.7959 27.2039 7.51931 10.8194 6.44927
threshold=1.0000000180025095e-35 59.000000000000007 71.000000000000014 34.500000000000007 1.5000000000000002 35.000000000000007 59.000000000000007 1.0000000180025095e-35 2.5000000000000004 1.5000000000000002 61.500000000000007 63.500000000000007 31.500000000000004 2.5000000000000004 64.500000000000014 110.50000000000001 32.500000000000007 83.000000000000014 1.5000000000000002 2.5000000000000004 47.000000000000007 600949.50000000012 596704.50000000012 71.500000000000014 2.5000000000000004 1.5000000000000002 778673.50000000012 75.500000000000014 79.500000000000014
decision_type=2 2 2 2 2 2 2 2 2 2 2 2 2 2 2 2 2 2 2 2 2 2 2 2 2 2 2 2 2
left_child=1 3 5 4 22 12 11 16 9 10 -4 -7 18 -14 -8 17 -5 -10 -2 -6 -9 -17 -1 24 25 -3 -25 -28 -26
right_child=2 23 8 7 19 6 14 20 15 -11 -12 -13 13 -15 -16 21 -18 -19 -20 -21 -22 -23 -24 26 28 -27 27 -29 -30
leaf_value=-0.03644517714881728 0.045777229040029385 0.07421540361517999 0.07683872138681612 0.0042450220004101756 0.0012337732014671445 0.032895854250034211 0.055435772716486045 0.047661979128569766 0.056712288042079298 0.11068525864801007 0.057421266856282495 0.00071318493121056521 0.069341581557447241 0.052286156986412216 0.029550804678728233 0.030713519260926053 0.031939135928594507 0.066902723185524759 0.020156990846036681 -0.010651319558770573 0.023525188507411643 0.052384280639705995 -0.027715915116831014 0.080141382880391798 0.057633526773595567 0.10951581254593075 0.023315406067573003 0.059084867736489605 0.073036193646704689
leaf_weight=488.46380841732025 296.48216347396374 301.02317269146442 2892.1389450728893 1252.8611729890108 6631.5351244062185 3458.3386434018612 2890.3974095284939 571.4517012834549 1974.3333505541086 1394.5669558346272 3903.7700057923794 535.24829027056694 2897.6340941786766 4879.2823095023632 498.12196224927902 134.87074944376945 314.30852709710598 5606.4093404859304 396.98064349591732 857.37381047010422 125.93607947230339 1036.4957423359156 1135.6726869344711 34.053190872073174 228.67630933225155 82.023482948541641 32.944247782230377 87.012462094426155 190.05171626806259
leaf_count=3238 957 567 5036 5719 34121 11602 7529 1680 4637 1552 8862 2287 6585 13438 1619 429 1087 11381 1528 4709 498 2539 7220 64 575 93 94 202 359
internal_value=0.043827 0.00514031 0.0583748 -0.000404275 -0.00552721 0.0483996 0.0391845 0.0201974 0.0677012 0.0733902 0.0657057 0.0285853 0.0564192 0.0586577 0.0516511 0.0623611 0.00983442 0.064265 0.0312149 -0.000129361 0.0433865 0.0499481 -0.0303846 0.0710023 0.0734401 0.0823221 0.0575045 0.0498271 0.0649497
internal_weight=45128.5 12333.4 32795.1 11377.6 9113.05 15852.5 7382.11 2264.56 16942.6 8190.48 6795.91 3993.59 8470.38 7776.92 3388.52 8752.11 1567.17 7580.74 693.463 7488.91 697.388 1171.37 1624.14 955.785 801.775 383.047 154.01 119.957 418.728
internal_count=140207 60226 79981 58272 49288 45545 23037 8984 34436 15450 13898 13889 22508 20023 9148 18986 6806 16018 2485 38830 2178 2968 10458 1954 1594 660 360 296 934
is_linear=0
shrinkage=0.05


Tree=10
num_leaves=27
num_cat=0
split_feature=6 6 5 1 8 5 5 8 3 3 1 3 4 3 8 5 3 1 1 3 1 2 5 1 5 1
split_gain=22453.8 4481.1 1626.45 1281.86 548.26 356.893 267.709 221.833 126.825 646.09 124.338 114.82 149.469 110.901 78.4506 50.3266 299.204 39.1617 36.3684 23.0207 20.5543 31.0972 19.7868 18.8602 10.2918 1.43456
threshold=1.0000000180025095e-35 1.5000000000000002 65.000000000000014 33.500000000000007 1.0000000180025095e-35 71.000000000000014 101.00000000000001 1.0000000180025095e-35 2.5000000000000004 1.5000000000000002 64.500000000000014 1.5000000000000002 1.0000000180025095e-35 1.5000000000000002 1.0000000180025095e-35 55.500000000000007 2.5000000000000004 27.500000000000004 57.500000000000007 2.5000000000000004 48.500000000000007 11.500000000000002 119.00000000000001 73.500000000000014 65.000000000000014 34.500000000000007
decision_type=2 2 2 2 2 2 2 2 2 2 2 2 2 2 2 2 2 2 2 2 2 2 2 2 2 2
left_child=2 24 11 7 5 -5 8 13 9 -4 -6 12 23 -3 -10 19 -17 -9 -14 -13 21 -8 -22 -1 25 -2
right_child=1 3 6 4 10 -7 20 17 14 -11 -12 15 18 -15 -16 16 -18 -19 -20 -21 22 -23 -24 -25 -26 -27
leaf_value=-0.035337168505980697 0.097142020047045391 -0.016642411739939252 0.025628803823203941 0.038662248796004356 0.070507975707111217 0.060057364234836146 0.056057365734202683 0.016009621254879664 0.02843469475371941 0.13190963488050844 0.048312207073555845 -0.011288042429214596 -0.00055255665199436675 0.015252608989037204 0.0092176608724295773 0.16445762216663715 -0.0059364757359934017 0.058464715113343516 -0.018335573402481146 -0.016670446986800657 -0.002416516158839577 -0.00017503298879663906 -0.019822460411545225 -0.0029990722927831616 0.089007306691624752 0.091785408205055541
leaf_weight=1483.3001671880484 907.81825542449951 323.95393772423267 1521.3013377487659 4553.4476797133684 5354.465548813343 3436.9216294288635 31.134629890322685 67.603619262576103 920.16465286910534 156.03573034703732 738.23618224263191 5272.351700887084 510.40592919290066 1666.6062733381987 1259.8738102763891 24.864238008856773 594.74315194785595 322.17659583687782 656.94885721802711 3219.242376729846 604.99331937730312 94.644395634531975 221.99617825448513 46.963093847036362 7326.3818085193634 4195.9722089916468
leaf_count=10137 1096 1799 4856 12891 9662 6678 93 262 2982 183 1616 30146 2434 7047 4604 40 2999 813 3507 17562 2810 393 1107 257 9076 5157
internal_value=0.0412731 0.0679064 -0.00503398 0.0507855 0.0565212 0.0478782 0.0194689 0.0168311 0.0253286 0.0356659 0.0678359 -0.0150166 -0.0240785 0.0100496 0.0173484 -0.0123286 0.00142273 0.0512261 -0.0105756 -0.0133322 -0.00425741 0.0144182 -0.00712749 -0.0343506 0.0905704 0.0927772
internal_weight=45512.5 28893.6 16619 16463.4 14083.1 7990.37 4810.14 2380.34 3857.38 1677.34 6092.7 11808.8 2697.62 1990.56 2180.04 9111.2 619.607 389.78 1167.35 8491.59 952.769 125.779 826.989 1530.26 12430.2 5103.79
internal_count=140207 56097 84110 40768 30847 19569 17028 9921 12625 5039 11278 67082 16335 8846 7586 50747 3039 1075 5941 47708 4403 486 3917 10394 15329 6253
is_linear=0
shrinkage=0.05


Tree=11
num_leaves=30
num_cat=0
split_feature=4 5 5 5 1 3 5 3 3 1 8 1 1 3 1 5 2 5 3 4 7 2 7 1 3 3 5 5 7
split_gain=8056.8 1466.53 994.469 396.843 385 421.233 313.959 178.417 807.746 211.11 176.313 160.219 151.115 173.325 91.2157 68.3681 63.3741 59.4355 37.5631 36.7803 24.1507 19.6668 9.30299 8.00586 26.4432 15.8482 6.77332 5.86191 3.56818
threshold=1.0000000180025095e-35 59.000000000000007 71.000000000000014 35.000000000000007 34.500000000000007 1.5000000000000002 59.000000000000007 2.5000000000000004 1.5000000000000002 61.500000000000007 1.0000000180025095e-35 62.500000000000007 31.500000000000004 2.5000000000000004 64.500000000000014 107.00000000000001 32.500000000000007 83.000000000000014 2.5000000000000004 1.5000000000000002 583991.00000000012 17.500000000000004 596704.50000000012 64.500000000000014 2.5000000000000004 1.5000000000000002 68.500000000000014 79.500000000000014 1338889.0000000002
decision_type=2 2 2 2 2 2 2 2 2 2 2 2 2 2 2 2 2 2 2 2 2 2 2 2 2 2 2 2 2
left_child=1 4 3 12 5 22 11 8 9 -4 16 -5 19 -14 -8 17 -6 -9 -7 -2 -17 -12 -1 24 25 -3 28 -26 -25
right_child=2 23 7 6 10 18 14 15 -10 -11 21 -13 13 -15 -16 20 -18 -19 -20 -21 -22 -23 -24 26 27 -27 -28 -29 -30
leaf_value=-0.034828890105563642 0.04111920531492675 0.069640727466447561 0.068748931958509701 0.029207808472501807 0.0033901457960859118 0.0010398185455112957 0.048995120817611489 0.049975163007426257 0.10015946066615462 0.050927502153809534 0.02095657733644439 0.001144008957615486 0.061917914081917304 0.046523740287279292 0.02582187256992631 0.02813707984719321 0.028294579443996572 0.060328752378892139 -0.010126890075966129 0.017866323473822377 0.048151269474890977 0.04263419770466198 -0.026109917278219503 0.048078781125978076 0.051094962733761622 0.09899106171814348 0.059101199271782416 0.065331442559048616 0.020860918625316166
leaf_weight=467.62346589565277 301.54066383838654 210.85711857676506 2925.7103895395994 3447.1779209077358 1253.5419806391001 6618.7972528934479 2948.3156790733337 2008.8300398737192 1406.5471338331699 3963.2550155222416 136.01972612738609 596.80751684308052 2953.1901116669178 4962.8820808678865 505.09155374765396 179.30207523703575 319.0334941893816 5201.2890427857637 847.6901299059391 400.65748012065887 1497.3322121798992 570.24863088130951 1095.0688924342394 32.630168154835701 233.1934849023819 83.0259999781847 191.62532344460487 192.72837087512016 26.881240889430046
leaf_count=3238 957 371 5036 11378 5719 34121 7529 4637 1552 8862 497 2511 6585 13438 1619 543 1087 10278 4709 1528 3528 1681 7220 80 575 93 390 359 86
internal_value=0.0391494 0.00452989 0.0519146 0.0429797 -0.000538249 -0.00517384 0.0345467 0.0602888 0.0655989 0.0585146 0.0178165 0.0250691 0.0503057 0.0522814 0.0456235 0.0553177 0.00847348 0.0574593 -0.000230315 0.0279438 0.0460485 0.0385335 -0.0287619 0.0634326 0.066493 0.0785668 0.0541878 0.0578223 0.0369063
internal_weight=45576.9 12279 33297.9 16115.7 11308 9029.18 7497.39 17182.3 8295.51 6888.97 2278.84 4043.99 8618.27 7916.07 3453.41 8886.75 1572.58 7210.12 7466.49 702.198 1676.63 706.268 1562.69 970.942 719.805 293.883 251.137 425.922 59.5114
internal_count=140207 60226 79981 45545 58272 49288 23037 34436 15450 13898 8984 13889 22508 20023 9148 18986 6806 14915 38830 2485 4071 2178 10458 1954 1398 464 556 934 166
is_linear=0
shrinkage=0.05


Tree=12
num_leaves=27
num_cat=0
split_feature=6 6 1 1 8 3 3 3 1 3 8 1 3 4 8 4 7 7 1 1 3 7 7 0 3 3
split_gain=19452.2 4226.86 986.461 739.657 532.78 165.312 1628.37 147.298 137.052 132.64 111.812 105.235 102.426 69.9348 42.1316 42.175 33.8896 29.5664 18.7191 16.1917 15.1451 24.9004 9.1943 8.28022 0.841864 7.72798
threshold=1.0000000180025095e-35 1.5000000000000002 31.500000000000004 40.500000000000007 1.0000000180025095e-35 2.5000000000000004 1.5000000000000002 2.5000000000000004 74.500000000000014 1.5000000000000002 1.0000000180025095e-35 64.500000000000014 1.5000000000000002 1.0000000180025095e-35 1.0000000180025095e-35 1.0000000180025095e-35 2159117.5000000005 760464.50000000012 50.500000000000007 34.500000000000007 2.5000000000000004 459956.00000000006 1895770.5000000002 1.0000000180025095e-35 1.5000000000000002 2.5000000000000004
decision_type=2 2 2 2 2 2 2 2 2 2 2 2 2 2 2 2 2 2 2 2 2 2 2 2 2 2
left_child=3 19 10 9 7 6 8 -4 -5 13 12 -6 -3 23 15 -7 -15 -12 -16 -2 22 -22 -11 -1 -21 -26
right_child=1 2 4 5 11 14 -8 -9 -10 20 17 -13 -14 16 18 -17 -18 -19 -20 24 21 -23 -24 -25 25 -27
leaf_value=-0.038150365975391828 0.091259683797385693 -0.020099371253436669 0.048588832870838441 -0.002944159714006966 0.063162106832004988 -0.014354429328142806 0.13538674553932648 0.035259956906014793 0.021015517674568617 -0.013086698886317239 0.061091378709823223 0.042929445899737628 0.013050308731713353 -0.0089871042078739655 -0.0086710661205690025 0.0070391114500989518 0.062748370138312623 0.027340236913418716 -0.00083847136859649743 0.08160604814913236 -0.032457883239938888 -0.015218978303213469 -0.0058504469372611294 -0.029565179065287502 0.088686526194823437 0.083072585913504138
leaf_weight=731.09515674412251 918.03406791388988 274.88169473409653 3933.4892067015171 2358.4527728706598 5556.3028826862574 263.07667462527752 249.15838396549225 4468.8287745416164 796.81440018117428 4720.1291986703873 116.77526861429214 748.7814112007618 1471.3256199806929 182.88578478991985 1648.0760916918516 1758.7757922261953 16.014074891805649 157.54375806450844 1419.8806415051222 4134.5274015814066 251.69641315937042 1279.9369369894266 489.68802209198475 549.6375195980072 1313.4767257720232 6011.2632279396057
leaf_count=5338 1106 1626 9101 9904 9922 1440 294 11389 2980 27333 309 1616 6299 877 7417 7119 53 506 6095 5230 1471 7084 2771 3934 1481 7512
internal_value=0.0369888 0.061676 0.045276 -0.00599954 0.0497762 0.00434749 0.0128728 0.0415103 0.00311603 -0.0166888 0.0125018 0.0607742 0.00781404 -0.0302424 -0.00135758 0.00424331 -0.00262345 0.0420589 -0.0050493 0.0838293 -0.0137056 -0.0180922 -0.0124093 -0.03452 0.0832177 0.084104
internal_weight=45820.5 29105.2 16727.9 16715.3 14707.4 8494.23 3404.43 8402.32 3155.27 8221.08 2020.53 6305.08 1746.21 1479.63 5089.81 2021.85 198.9 274.319 3067.96 12377.3 6741.45 1531.63 5209.82 1280.73 11459.3 7324.74
internal_count=140207 56097 40768 84110 32028 35249 13178 20490 12884 48861 8740 11538 7925 10202 22071 8559 930 815 13512 15329 38659 8555 30104 9272 14223 8993
is_linear=0
shrinkage=0.05


Tree=13
num_leaves=26
num_cat=0
split_feature=6 6 5 4 8 5 5 5 8 5 3 4 8 3 5 3 3 3 2 5 7 5 7 0 4
split_gain=17497.1 3991.14 1199.82 904.352 380.342 355.214 229.745 217.295 194.707 100.575 97.5816 107.582 64.5994 48.8349 33.9009 222.018 33.098 30.9656 30.0665 15.7624 13.7588 13.6123 12.4029 11.1355 3.04838
threshold=1.0000000180025095e-35 1.5000000000000002 65.000000000000014 1.0000000180025095e-35 1.0000000180025095e-35 61.500000000000007 101.00000000000001 77.000000000000014 1.0000000180025095e-35 83.000000000000014 1.5000000000000002 1.0000000180025095e-35 1.0000000180025095e-35 1.0000000180025095e-35 55.500000000000007 2.5000000000000004 2.5000000000000004 2.5000000000000004 5.5000000000000009 121.50000000000001 812333.50000000012 65.000000000000014 2089844.0000000002 1.0000000180025095e-35 1.0000000180025095e-35
decision_type=2 2 2 2 2 2 2 2 2 2 2 2 2 2 2 2 2 2 2 2 2 2 2 2 2
left_child=2 21 10 5 7 8 9 -5 -3 16 11 23 -11 -6 17 -16 -4 -12 -13 20 -8 24 -21 -1 -2
right_child=1 3 6 4 13 -7 19 -9 -10 12 14 18 -14 -15 15 -17 -18 -19 -20 22 -22 -23 -24 -25 -26
leaf_value=-0.036058157285537018 0.086699624415072452 0.0065378867655630007 0.019395696148658739 0.034233846543756642 0.080636857117002692 0.065587321710213198 -0.013076989194430851 0.051481028623192038 0.040534736513778723 0.037816703471909748 -0.010449462745641151 0.0037613230440698936 0.020407465647929477 0.05687130112306929 0.13077449045646444 -0.0074540754029835416 0.0052185016617034632 -0.016701727241514221 -0.015823664036207198 -0.02637540740035077 0.00087617108754173246 0.078543886603297031 0.0060798031742732381 -0.026885505172665494 0.081477008209453361
leaf_weight=814.28395134210587 990.46913704276085 2312.4438075423241 697.91143923997879 4710.8647284060717 235.9941114783287 356.50281497836113 261.75026448071003 3011.1512301415205 513.23485825955868 873.31740461289883 5207.0252865701914 246.69688758254051 1393.7973002642393 5700.0185283571482 28.445896461606026 605.69932177662849 1005.3759970366955 3216.9167264997959 936.92505428195 146.22481018304825 533.93515242636204 7223.2498080581427 35.835355326533318 631.22650526463985 4078.9209536612034
leaf_count=5937 1212 9785 2266 12567 330 612 1203 5727 1308 2199 30146 1181 4304 10439 40 2999 3856 17562 4760 723 2318 9076 159 4457 5041
internal_value=0.0351799 0.0585398 -0.00573145 0.0427191 0.0483121 0.0186977 0.0149014 0.0409713 0.0127381 0.0202458 -0.0144682 -0.0229498 0.0271423 0.0578439 -0.0120016 -0.000848786 0.0110444 -0.0128407 -0.0117416 -0.00679747 -0.00373491 0.0802023 -0.0199867 -0.0320971 0.0825324
internal_weight=45768.2 29132.8 16635.4 16840.2 13658 3182.18 4948.15 7722.02 2825.68 3970.4 11687.2 2629.13 2267.11 5936.01 9058.09 634.145 1703.29 8423.94 1183.62 977.746 795.685 12292.6 182.06 1445.51 5069.39
internal_count=140207 56097 84110 40768 29063 11705 17028 18294 11093 12625 67082 16335 6503 10769 50747 3039 6122 47708 5941 4403 3521 15329 882 10394 6253
is_linear=0
shrinkage=0.05


Tree=14
num_leaves=27
num_cat=0
split_feature=6 6 5 5 8 1 5 5 3 3 8 3 1 1 8 1 5 3 3 1 5 1 1 5 0 1
split_gain=15789.8 3786.39 1088.44 833.442 495.196 236.531 206.848 105.285 100.467 453.895 95.648 91.2682 108.073 59.2383 46.9345 33.9812 31.1098 194.279 28.5978 23.9935 19.5053 18.8137 14.3477 10.7961 4.69135 2.49381
threshold=1.0000000180025095e-35 1.5000000000000002 65.000000000000014 62.500000000000007 1.0000000180025095e-35 33.500000000000007 98.500000000000014 83.000000000000014 2.5000000000000004 1.5000000000000002 1.0000000180025095e-35 1.5000000000000002 33.500000000000007 64.500000000000014 1.0000000180025095e-35 74.500000000000014 55.500000000000007 2.5000000000000004 2.5000000000000004 57.500000000000007 119.00000000000001 49.500000000000007 81.500000000000014 65.000000000000014 1.0000000180025095e-35 34.500000000000007
decision_type=2 2 2 2 2 2 2 2 2 2 2 2 2 2 2 2 2 2 2 2 2 2 2 2 2 2
left_child=2 23 11 4 5 -3 7 15 9 -5 -10 12 24 -6 -9 -4 18 -18 -13 -14 22 -22 -8 25 -1 -2
right_child=1 3 6 8 13 -7 20 14 10 -11 -12 16 19 -15 -16 -17 17 -19 -20 -21 21 -23 -24 -25 -26 -27
leaf_value=-0.036663931145754489 0.083234373612405918 0.0080554551285159492 0.0079167791892604446 0.049825879615928749 0.049778474217782732 0.028867911123719288 -0.0023844409732797947 0.036631802921786458 0.038705299316395228 0.094232566636163737 0.054116453287796788 -0.009993701001025028 -0.0058302751950597967 0.01902375473514345 0.021211353947650641 0.03016117169886889 0.11987594492338226 -0.0071126971177841378 -0.016027853288562401 -0.018800418587538944 0.030067287080925084 -0.02125123119553074 0.03089940737893726 0.075440654109799998 -0.029584634426359536 0.078141732840109876
leaf_weight=645.26530051976442 902.27360318601131 2018.8696469515562 1518.2408912479877 3184.3822110593319 2512.8690861314535 4227.9509314447641 879.70449231564999 809.55502471327782 2010.23489767313 705.48828019201756 2090.893541097641 5173.2436909973621 644.06241332739592 170.67081671953201 1300.19390617311 192.09898589551449 29.634649977087975 603.19619230926037 3185.4661296010017 804.6217228770256 17.624243423342705 219.58525544404984 31.552328661084175 7146.3532294034958 495.97678583860397 4124.5125817507505
leaf_count=4981 1096 8839 5531 5962 5091 11592 3698 2009 4304 787 3758 30146 3276 435 3950 591 40 2999 17562 4372 61 1089 99 9076 3706 5157
internal_value=0.0335145 0.055693 -0.00547686 0.0403856 0.0298764 0.0221467 0.0140959 0.0196873 0.0521194 0.0579256 0.0465858 -0.0138748 -0.0221463 0.0478389 0.0271588 0.0104489 -0.0114877 -0.000794945 -0.0122968 -0.0130511 -0.0045036 -0.0172091 -0.00116405 0.0769607 -0.0336468 0.0790897
internal_weight=45644.5 29094.5 16550 16921.4 8930.36 6246.82 4968.56 3820.09 7991 3889.87 4101.13 11581.5 2589.93 2683.54 2109.75 1710.34 8991.54 632.831 8358.71 1448.68 1148.47 237.209 911.257 12173.1 1141.24 5026.79
internal_count=140207 56097 84110 40768 25957 20431 17028 12081 14811 6749 8062 67082 16335 5526 5959 6122 50747 3039 47708 7648 4947 1150 3797 15329 8687 6253
is_linear=0
shrinkage=0.05


Tree=15
num_leaves=27
num_cat=0
split_feature=6 6 5 5 4 5 5 8 5 8 3 3 3 1 8 1 3 1 1 3 1 7 7 5 5 1
split_gain=14288.3 3609.63 988.065 763.585 478.006 248.195 163.136 158.025 131.539 106.243 92.6719 419.778 90.4012 89.7439 87.3642 28.382 24.4308 647.162 16.823 44.1599 15.8183 15.3585 12.7639 8.71916 2.8954 1.28237
threshold=1.0000000180025095e-35 1.5000000000000002 61.500000000000007 62.500000000000007 1.0000000180025095e-35 35.000000000000007 101.00000000000001 1.0000000180025095e-35 71.000000000000014 1.0000000180025095e-35 2.5000000000000004 1.5000000000000002 1.5000000000000002 33.500000000000007 1.0000000180025095e-35 56.500000000000007 2.5000000000000004 40.500000000000007 54.500000000000007 2.5000000000000004 83.500000000000014 479091.00000000006 697461.50000000012 61.500000000000007 32.500000000000007 34.500000000000007
decision_type=2 2 2 2 2 2 2 2 2 2 2 2 2 2 2 2 2 2 2 2 2 2 2 2 2 2
left_child=2 23 12 4 7 -6 8 -3 22 -10 11 -5 13 24 -12 -15 17 -14 19 -8 -20 -18 -4 25 -1 -2
right_child=1 3 6 10 5 -7 18 -9 9 -11 14 -13 16 15 -16 -17 21 -19 20 -21 -22 -23 -24 -25 -26 -27
leaf_value=-0.031836634084205895 0.079806020326392571 0.005814748683046541 0.0091177143720096304 0.047287541080207746 0.043568322888356159 0.022401351482180063 0.035331805199377592 0.035854911226322478 0.031775175283244653 0.013782784165815402 0.036651940244989495 0.090092066268897569 -0.011064481265980433 -0.0052361897175024459 0.05136320462359828 -0.020135090959412821 -0.022264547566254664 0.15899822599678778 -0.013107413282119501 -0.0065617048374864984 0.033443143527300073 -0.013168441871809919 -0.0031312638561614044 0.072709615855677631 -0.042594307938962822 0.075207142048603348
leaf_weight=1027.1601161658764 889.56834223866463 2346.532748401165 301.0868614166975 3187.5600108057261 3956.9627881199121 2142.4297308325768 76.422152101993561 536.50215637683868 1377.6025192141533 2040.0647856742144 2016.6515915542841 701.20928205549717 5099.9847565293312 589.05335405468941 2092.8691217154264 702.28870892524719 556.43879602849483 54.506164848804474 563.362070530653 314.86876800656319 16.925519391894341 2949.8816538155079 710.56416144967079 7361.224160566926 87.076521761715412 3773.1248365044594
leaf_count=7997 1091 9813 1226 5962 9113 5699 228 1332 3785 6565 4304 787 30093 3022 3758 3905 3172 70 2709 1413 53 16179 3004 9468 689 4770
internal_value=0.0319648 0.0530823 -0.00523232 0.0382317 0.0282149 0.0361436 0.0122962 0.0114268 0.0163648 0.0210502 0.0494707 0.0550497 -0.0137878 -0.0223635 0.0441662 -0.0133586 -0.011401 -0.00920317 -0.00624684 0.00176085 -0.0116348 -0.0146244 0.000524679 0.0740448 -0.0327551 0.0761196
internal_weight=45471.9 29004.6 16467.3 16980.7 8982.43 6099.39 5400.9 2883.03 4429.32 3417.67 7998.29 3888.77 11066.4 2405.58 4109.52 1291.34 8660.81 5154.49 971.579 391.291 580.288 3506.32 1011.65 12023.9 1114.24 4662.69
internal_count=140207 56097 84110 40768 25957 14812 18983 11145 14580 10350 14811 6749 65127 15613 8062 6927 49514 30163 4403 1641 2762 19351 4230 15329 8686 5861
is_linear=0
shrinkage=0.05


Tree=16
num_leaves=27
num_cat=0
split_feature=6 6 5 5 8 4 5 5 8 8 5 1 1 1 1 2 1 1 2 1 2 4 1 5 5 1
split_gain=12957.4 3456.75 897.145 702.573 429.303 293.932 146.144 117.414 94.3695 83.9298 95.0766 59.6017 52.5724 32.0149 43.055 25.649 23.7348 15.3197 17.1846 14.8323 11.7406 9.62577 9.8798 7.15291 6.89591 2.40079
threshold=1.0000000180025095e-35 1.5000000000000002 61.500000000000007 62.500000000000007 1.0000000180025095e-35 1.0000000180025095e-35 101.00000000000001 71.000000000000014 1.0000000180025095e-35 1.0000000180025095e-35 107.00000000000001 62.500000000000007 64.500000000000014 40.500000000000007 54.500000000000007 12.500000000000002 73.500000000000014 54.500000000000007 33.500000000000007 81.500000000000014 20.500000000000004 1.5000000000000002 25.500000000000004 83.000000000000014 11.000000000000002 34.500000000000007
decision_type=2 2 2 2 2 2 2 2 2 2 2 2 2 2 2 2 2 2 2 2 2 2 2 2 2 2
left_child=2 23 13 4 5 -3 7 20 -9 10 -5 -11 -6 21 15 -15 -16 18 -8 -19 -4 22 -1 25 -23 -2
right_child=1 3 6 9 12 -7 17 8 -10 11 -12 -13 -14 14 16 -17 -18 19 -20 -21 -22 24 -24 -25 -26 -27
leaf_value=-0.021561695885869973 0.076755523510246032 0.0055089773166046331 -0.0051246205865581587 0.045425829605854534 0.045158968636055188 0.027809932448672348 0.0055789990766290792 0.029934435810440377 0.013034022921173397 0.055189126589585927 0.025092492465895601 0.039007182585007495 0.016316558757522557 0.003848285399441289 -0.020249501351209138 -0.0083113962203405552 -0.0018432880206489149 -0.013211853355180088 -0.026145379354146982 0.019120017995019459 0.0056358852687251482 0.002526323828029781 -0.014067166038517792 0.069566362420976052 -0.024428806335308206 0.072079400645467154
leaf_weight=477.17044919729233 891.42177845537663 2352.8840562552214 483.0447638630867 3342.4894895553589 2530.4173922836781 3975.4477267563343 344.52837486565113 1389.0201977789402 2049.2710818350315 3225.7615989744663 705.19199769198895 721.11111664772034 171.8295676857233 609.66257202625275 936.38027414679527 1491.1534281224012 215.98027710616589 540.44226096570492 46.625565767288208 36.153216645121574 528.85740849375725 24.928105056285858 6848.5544624552131 4969.9216129183769 363.90696662664413 5988.6969733834267
leaf_count=3101 1106 9813 2064 6447 5091 10618 1419 3785 6565 5405 1537 1422 435 3025 5188 7641 1153 2640 222 122 2166 123 42932 6524 1964 7699
internal_value=0.0305143 0.050666 -0.00499932 0.0362256 0.0266579 0.019523 0.0116437 0.015472 0.0198756 0.0470233 0.0418981 0.0522547 0.0433391 -0.0132215 -0.00905071 -0.00478196 -0.0168098 -0.00595518 0.00167837 -0.0111225 0.000498525 -0.0149773 -0.0145614 0.0714029 -0.0226947 0.0727082
internal_weight=45260.9 28875.2 16385.7 17025.1 9030.58 6328.33 5417.94 4450.19 3438.29 7994.55 4047.68 3946.87 2702.25 10967.7 3253.18 2100.82 1152.36 967.749 391.154 576.595 1011.9 7714.56 7325.72 11850 388.835 6880.12
internal_count=140207 56097 84110 40768 25957 20431 18983 14580 10350 14811 7984 6827 5526 65127 17007 10666 6341 4403 1641 2762 4230 48120 46033 15329 2087 8805
is_linear=0
shrinkage=0.05


Tree=17
num_leaves=27
num_cat=0
split_feature=6 6 5 5 8 4 5 5 1 8 1 8 5 1 1 5 2 1 5 1 7 4 1 5 5 1
split_gain=11774.9 3320.89 814.171 647.758 401.665 263.7 132.278 119.127 71.345 67.0213 53.2358 31.5941 29.7821 29.6698 39.6108 27.007 23.2779 21.936 16.3125 16.4 13.3785 8.93584 9.24129 6.39586 6.01591 1.77929
threshold=1.0000000180025095e-35 1.5000000000000002 61.500000000000007 65.000000000000014 1.0000000180025095e-35 1.0000000180025095e-35 98.500000000000014 83.000000000000014 62.500000000000007 1.0000000180025095e-35 60.500000000000007 1.0000000180025095e-35 71.000000000000014 40.500000000000007 54.500000000000007 110.50000000000001 12.500000000000002 73.500000000000014 119.00000000000001 49.500000000000007 812333.50000000012 1.5000000000000002 25.500000000000004 11.000000000000002 83.000000000000014 34.500000000000007
decision_type=2 2 2 2 2 2 2 2 2 2 2 2 2 2 2 2 2 2 2 2 2 2 2 2 2 2
left_child=2 24 13 4 5 -3 7 12 9 -5 -6 -9 -4 21 16 -10 -15 -16 20 -20 -8 22 -1 -23 25 -2
right_child=1 3 6 8 10 -7 18 11 15 -11 -12 -13 -14 14 17 -17 -18 -19 19 -21 -22 23 -24 -25 -26 -27
leaf_value=-0.02078720246712536 0.074014495056409599 0.0052976460823845545 0.00047317360956655914 0.042111402856663809 0.04350577812720316 0.026237389355652486 -0.0096355315888389335 0.031073621123045431 0.038681174349862339 0.052691121430875926 0.020080071615107123 0.018523154088631335 0.012262637239056656 0.0036483716146250389 -0.019476665611418306 0.021864928281139985 -0.0079346332540115912 -0.001753948902566616 0.027958035869230458 -0.019728869303270634 0.0032180658666192789 0.0024064172245597685 -0.013489687795353209 -0.02354865127183085 0.067259036252827989 0.069632504061994296
leaf_weight=470.45266389846802 878.61111542582512 2367.0368309170008 1012.1254045367241 3029.7904842942953 2537.6274102926254 4125.7272608429193 301.38266482949257 825.33258895576 1290.5164945572615 3123.8923828452826 274.02811017632484 1319.3691689223051 1136.6327507197857 610.99364274740219 925.23074010014534 304.99307867884636 1484.1418670117855 215.74352520704269 17.859722048044205 214.83878862857819 606.17819103598595 24.963493406772614 6786.3578770160675 358.84135417640209 4885.603388980031 5891.7098596096039
leaf_count=3101 1106 9833 4230 5843 5061 10935 1310 2009 2528 5243 657 3950 3847 3025 5188 668 7641 1153 61 1089 2487 123 42932 1964 6524 7699
internal_value=0.0291508 0.0484234 -0.00477459 0.0343575 0.0254543 0.0186077 0.0110277 0.0150465 0.0450379 0.0474981 0.0412393 0.0233784 0.00671558 -0.0126696 -0.00864659 0.0354994 -0.00455613 -0.0161354 -0.00410393 -0.0158524 -0.00106172 -0.0143707 -0.0139686 -0.0218548 0.0689932 0.0702236
internal_weight=45020 28709.5 16310.4 17053.6 9304.42 6492.76 5433.72 4293.46 7749.19 6153.68 2811.66 2144.7 2148.76 10876.7 3236.11 1595.51 2095.14 1140.97 1140.26 232.699 907.561 7640.62 7256.81 383.805 11655.9 6770.32
internal_count=140207 56097 84110 40768 26486 20768 18983 14036 14282 11086 5718 5959 8077 65127 17007 3196 10666 6341 4947 1150 3797 48120 46033 2087 15329 8805
is_linear=0
shrinkage=0.05


Tree=18
num_leaves=30
num_cat=0
split_feature=6 6 5 5 8 4 5 5 3 3 3 1 8 1 3 3 3 1 1 5 1 7 8 1 3 3 7 3 3
split_gain=10718.5 3198.26 738.873 596.937 364.49 235.668 118.671 106.542 88.1668 379.782 85.6941 86.0205 60.0264 48.0082 46.1608 34.7217 25.8796 556.172 25.7098 14.9016 14.9821 14.4628 12.1592 5.91464 3.44791 4.12014 3.02974 2.52932 7.80075
threshold=1.0000000180025095e-35 1.5000000000000002 61.500000000000007 65.000000000000014 1.0000000180025095e-35 1.0000000180025095e-35 98.500000000000014 83.000000000000014 2.5000000000000004 1.5000000000000002 1.5000000000000002 33.500000000000007 1.0000000180025095e-35 60.500000000000007 2.5000000000000004 2.5000000000000004 2.5000000000000004 40.500000000000007 61.500000000000007 119.00000000000001 49.500000000000007 479091.00000000006 1.0000000180025095e-35 53.500000000000007 2.5000000000000004 1.5000000000000002 2055957.5000000002 1.5000000000000002 2.5000000000000004
decision_type=2 2 2 2 2 2 2 2 2 2 2 2 2 2 2 2 2 2 2 2 2 2 2 2 2 2 2 2 2
left_child=2 23 10 4 5 -3 7 15 9 -5 11 26 -10 -6 -9 -4 17 -12 -13 22 -21 -18 -8 24 25 -2 -1 -25 -29
right_child=1 3 6 8 13 -7 19 14 12 -11 16 18 -14 -15 -16 -17 21 -19 -20 20 -22 -23 -24 27 -26 -27 -28 28 -30
leaf_value=-0.03019260153787556 0.067199720081645112 0.0050204416705880509 0.014005828539811372 0.041046765551449704 0.041281555635014046 0.024780034105420193 0.006090139617783135 0.030139316290432538 0.031325337125743299 0.082940444388855394 -0.0093183358411445035 -0.0045611928746318265 0.043731778595030135 0.019052925992377661 0.01539014861729731 0.0010930521214061399 -0.020655715541074093 0.14459420079345334 -0.018839346178846254 0.026437082888410648 -0.018959378727814793 -0.011722345282378773 -0.0057080536017866269 0.06320137910243985 0.066537383771160849 0.07246556959956546 -0.041825419664707902 0.074887606121605096 0.065006222842132519
leaf_weight=991.31646272540092 1530.7445375174284 2372.8081100434065 877.8365103751421 3099.7228924930096 2540.656365185976 4149.4380575567484 360.89074416458607 976.35555571317673 1956.1671930253506 657.29559949040413 4971.8293491899967 626.84728587418795 2017.8049569129944 274.46045626699924 1179.699502274394 1276.174986705184 541.78727570176125 57.339177846908569 636.14314231276512 18.056230336427689 212.52423715591431 2889.9298738092184 546.22438502311707 2397.8112212568521 4197.0366873443127 1416.8447911590338 74.398944832384586 363.20823460817337 1539.7575384527445
leaf_count=8070 2037 9833 3011 5785 5061 10935 1455 2533 4106 751 30093 3273 3640 657 3426 5066 3172 70 3654 61 1089 16179 2342 3336 5631 1785 616 441 2099
internal_value=0.0278677 0.0463323 -0.00455902 0.032613 0.0240952 0.0175954 0.0104487 0.0142388 0.0428915 0.0484178 -0.0121372 -0.0206304 0.0376444 0.0391302 0.022092 0.00636417 -0.00979501 -0.00750486 -0.0117724 -0.00390877 -0.0151986 -0.0131445 -0.00101024 0.0667819 0.067895 0.06978 -0.0310846 0.064901 0.0669716
internal_weight=44751.1 28513.8 16237.4 17068.4 9337.36 6522.25 5447.76 4310.07 7730.99 3757.02 10789.6 2328.71 3973.97 2815.12 2156.06 2154.01 8460.89 5029.17 1262.99 1137.7 230.58 3431.72 907.115 11445.4 7144.63 2947.59 1065.72 4300.78 1902.97
internal_count=140207 56097 84110 40768 26486 20768 18983 14036 14282 6536 65127 15613 7746 5718 5959 8077 49514 30163 6927 4947 1150 19351 3797 15329 9453 3822 8686 5876 2540
is_linear=0
shrinkage=0.05


Tree=19
num_leaves=29
num_cat=0
split_feature=6 6 1 1 8 3 3 3 1 3 3 1 4 1 4 7 8 2 1 3 7 7 7 1 3 3 3 3
split_gain=9772.71 3085.28 544.195 410.384 331.688 115.696 1224.1 112.191 105.397 99.3949 87.7059 74.4739 59.8588 38.8008 33.2835 32.6777 26.5202 31.0539 15.8236 13.6597 22.6323 8.90258 6.76086 5.78055 3.5795 3.96303 2.66534 8.1795
threshold=1.0000000180025095e-35 1.5000000000000002 30.500000000000004 40.500000000000007 1.0000000180025095e-35 2.5000000000000004 1.5000000000000002 2.5000000000000004 74.500000000000014 1.5000000000000002 1.5000000000000002 64.500000000000014 1.0000000180025095e-35 27.500000000000004 1.0000000180025095e-35 2201499.0000000005 1.0000000180025095e-35 33.500000000000007 50.500000000000007 2.5000000000000004 459956.00000000006 1895770.5000000002 400326.00000000006 53.500000000000007 2.5000000000000004 1.5000000000000002 1.5000000000000002 2.5000000000000004
decision_type=2 2 2 2 2 2 2 2 2 2 2 2 2 2 2 2 2 2 2 2 2 2 2 2 2 2 2 2
left_child=3 23 10 9 7 6 8 -4 -5 12 14 -6 22 -12 -3 -14 17 -7 -18 21 -21 -11 -1 24 25 -2 -25 -28
right_child=1 2 4 5 11 16 -8 -9 -10 19 13 -13 15 -15 -16 -17 18 -19 -20 20 -22 -23 -24 26 -26 -27 27 -29
leaf_value=-0.041334067660697645 0.065198747119661102 -0.027127031314743671 0.033808346777259163 -0.0037133464532455918 0.044826807277596352 0.0048108920567863766 0.1134619071935096 0.022481319021433702 0.017193272999531339 -0.0095456796585995964 0.0015117492914020539 0.027998985871970479 -0.005733183362936406 0.017266246515932445 0.0155686824802986 0.065937795016162801 -0.0078801115504911669 -0.01699571998100885 -0.00063286273588252309 -0.02865885788029501 -0.011623196919967139 -0.0022770881140886522 -0.028130005156314416 0.061179237945860623 0.064487861286776985 0.070392095375450339 0.073040841543669091 0.062970717195976036
leaf_weight=118.29598984122276 1499.6903595626354 242.69118282198906 4162.331252604723 2341.4350461065769 5608.8476606160402 1838.9985018670559 263.42706060409546 4656.6176426559687 809.57100144028664 4479.7062861323357 702.35289895534515 760.15495213866234 174.94581966102123 880.54567492008209 54.654216662049294 15.412651449441908 1622.3438275009394 177.11768347024918 1405.4701386839151 232.442861109972 1210.6554664820433 466.93891370296478 1006.5352382957935 2354.3865446597338 4116.0294087380171 1386.4812757372856 354.05593687295914 1510.855385273695
leaf_count=1012 2037 1450 9662 9904 10050 7784 294 11494 2980 27333 2969 1616 881 3345 182 49 7417 775 6095 1471 7084 2771 8260 3336 5631 1785 441 2099
internal_value=0.0266612 0.0443807 0.0309858 -0.00435398 0.0341268 0.00324976 0.0103542 0.0278341 0.00166558 -0.0127 0.00560404 0.0428282 -0.0252116 0.0102873 -0.0192237 0.000710184 -0.00156166 0.0028794 -0.004519 -0.0101173 -0.0144046 -0.00886094 -0.0295924 0.0647452 0.0658489 0.0677423 0.062882 0.0649615
internal_weight=44453 28289.7 17068.2 16163.3 15188 8458.36 3414.43 8818.95 3151.01 7704.93 1880.24 6369 1315.19 1582.9 297.345 190.358 5043.93 2016.12 3027.81 6389.74 1443.1 4946.65 1124.83 11221.5 7002.2 2886.17 4219.3 1864.91
internal_count=140207 56097 40768 84110 32822 35249 13178 21156 12884 48861 7946 11666 10202 6314 1632 930 22071 8559 13512 38659 8555 30104 9272 15329 9453 3822 5876 2540
is_linear=0
shrinkage=0.05


Tree=20
num_leaves=30
num_cat=0
split_feature=6 6 5 5 8 4 5 3 5 3 1 5 1 3 1 3 1 2 2 5 7 1 1 3 3 5 3 3 2
split_gain=8916.5 2985.79 636.865 542.319 334.409 192.098 122.464 75.6812 82.6443 73.0089 84.1881 66.5057 55.2931 36.3564 26.1041 24.354 529.647 21.7686 13.9907 14.2331 13.4259 5.70238 5.46367 3.72843 3.86724 3.34381 2.81018 8.5796 0.334292
threshold=1.0000000180025095e-35 1.5000000000000002 65.000000000000014 71.000000000000014 1.0000000180025095e-35 1.0000000180025095e-35 98.500000000000014 1.0000000180025095e-35 107.00000000000001 1.5000000000000002 33.500000000000007 83.000000000000014 63.500000000000007 2.5000000000000004 74.500000000000014 2.5000000000000004 40.500000000000007 5.5000000000000009 33.500000000000007 104.50000000000001 479091.00000000006 53.500000000000007 73.500000000000014 2.5000000000000004 1.5000000000000002 32.500000000000007 1.5000000000000002 2.5000000000000004 32.500000000000007
decision_type=2 2 2 2 2 2 2 2 2 2 2 2 2 2 2 2 2 2 2 2 2 2 2 2 2 2 2 2 2
left_child=2 21 9 4 5 -3 11 28 -9 10 25 14 -6 -13 -4 16 -11 -12 19 -8 -17 23 -20 24 -2 -1 -23 -28 -5
right_child=1 3 6 7 12 -7 18 8 -10 15 17 13 -14 -15 -16 20 -18 -19 22 -21 -22 26 -24 -25 -26 -27 27 -29 -30
leaf_value=-0.028473524591184813 0.063343122279985273 0.0045693418315158269 0.0052661598153520275 0.05937502002446382 0.037523570904842346 0.021988257535480876 0.0069140504431474993 0.042171100762150464 0.028896469479748377 -0.0085045432343625778 0.002144706441499267 0.027723775203638664 0.012473353685275367 0.014659797231277522 0.024462116279347378 -0.018977507828994187 0.12216134785954523 -0.013612418893924727 -0.023118983200201844 -0.0058815024509996693 -0.010524321100879861 0.059291077292614118 0.0065419260416463209 0.06258555145819758 0.06849182739160041 -0.040126976684886941 0.071364575357850069 0.061076052207191062 0.070571784762776035
leaf_weight=941.13146641105413 1467.3265596330166 2421.1536436080933 1545.5408909469843 170.32423301041126 2899.801479741931 4576.629493355751 314.56511846184731 5074.5038345009089 1553.4212490022182 4915.9706726819277 271.19612848013639 982.46278208494186 241.30010567605495 1183.4776503890753 198.36524450778961 558.02524636685848 76.739472806453705 1128.0564219504595 112.94674873352051 691.22502735257149 3081.8664490580559 2309.1156636476517 16.990819171071053 4031.3008975684643 1354.5684974491596 79.439009070396423 344.5431906580925 1480.6712120473385 133.4147277623415
leaf_count=7997 2037 9891 5531 255 5731 11846 1149 9157 3117 30099 1402 2533 594 3426 591 3308 87 6246 536 3193 17253 3336 69 5631 1785 690 441 2099 177
internal_value=0.0255074 0.0425252 -0.00415546 0.0294335 0.0220567 0.0159647 0.0105607 0.0402137 0.0390699 -0.0108744 -0.0185495 0.0147574 0.0356089 0.0206066 0.00747637 -0.00871895 -0.00644644 -0.0105593 -0.0038864 -0.00187296 -0.0118305 0.0628554 -0.0191934 0.0639546 0.0658631 -0.0294604 0.0610021 0.0630969 0.064738
internal_weight=44156.1 28058.1 16098 17070.5 10138.9 6997.78 5045.57 6931.66 6627.93 11052.4 2419.82 3909.85 3141.1 2165.94 1743.91 8632.6 4992.71 1399.25 1135.73 1005.79 3639.89 10987.5 129.938 6853.2 2821.9 1020.57 4134.33 1825.21 303.739
internal_count=140207 56097 84110 40768 28062 21737 17028 12706 12274 67082 16335 12081 6325 5959 6122 50747 30186 7648 4947 4342 20561 15329 605 9453 3822 8687 5876 2540 432
is_linear=0
shrinkage=0.05


Tree=21
num_leaves=30
num_cat=0
split_feature=6 6 5 5 4 5 5 5 2 3 3 3 3 4 5 5 3 1 1 2 7 1 2 1 1 3 3 3 3
split_gain=8146.18 2888.76 577.951 502.471 276.215 203.754 91.2449 91.627 83.7556 82.4192 373.889 79.2294 78.9018 65.7609 51.0093 42.3402 20.6957 361.509 12.9331 25.8983 17.5246 12.7828 12.3075 11.4357 5.66806 3.8908 3.8199 2.96095 8.99779
threshold=1.0000000180025095e-35 1.5000000000000002 59.000000000000007 65.000000000000014 1.0000000180025095e-35 35.000000000000007 101.00000000000001 71.000000000000014 6.5000000000000009 2.5000000000000004 1.5000000000000002 2.5000000000000004 1.5000000000000002 1.0000000180025095e-35 113.00000000000001 35.000000000000007 2.5000000000000004 40.500000000000007 48.500000000000007 11.500000000000002 841721.50000000012 37.500000000000007 20.500000000000004 73.500000000000014 53.500000000000007 2.5000000000000004 1.5000000000000002 1.5000000000000002 2.5000000000000004
decision_type=2 2 2 2 2 2 2 2 2 2 2 2 2 2 2 2 2 2 2 2 2 2 2 2 2 2 2 2 2
left_child=2 24 12 4 8 -6 7 22 -3 10 -5 -9 13 23 -11 -15 17 -14 19 -8 -20 -18 -4 -1 25 26 -2 -26 -29
right_child=1 3 6 9 5 -7 18 11 -10 14 -12 -13 16 15 -16 -17 21 -19 20 -21 -22 -23 -24 -25 27 -27 -28 28 -30
leaf_value=-0.027824292337829595 0.061613682649124771 -0.01068738657864279 -0.0053749750523590959 0.035628567735746589 0.032906797124231141 0.014532737554614969 0.046527535582874757 0.024265658351711739 0.011451931228034909 0.034403801292307808 0.077833413392828343 0.0091076637702558472 -0.0081548654809453468 0.00094562961780895571 0.015817388679782624 -0.020360045334001712 -0.016804257229317068 0.11715071000582669 -0.017479395142838496 -0.0037658670831240784 -0.0021841069573780791 -0.0098317706149041433 0.0047453179495612861 -0.00045299916514020781 0.057519491647739444 0.060810934518397398 0.066741677369141772 0.069837420900895328 0.05930370474071775
leaf_weight=1204.490272141993 1433.9944235980511 516.0599285364151 582.36198061704636 3065.0165175497532 4042.9103301018476 2415.219320744276 32.59344719350338 1552.1903091371059 2439.3143507689238 3524.6881614476442 634.16203455626965 1945.56217238307 4885.6958082765341 481.63998863101006 418.25743070244789 449.55057425796986 925.36186729371548 56.189687073230743 284.24378129839897 96.845111280679703 543.84595954418182 2330.8900512158871 616.11958819627762 39.533607333898544 2262.4782490432262 3943.7879549115896 1321.4794417768717 334.76651206612587 1449.5322608351707
leaf_count=10088 2037 2199 2560 5785 9113 6194 93 4178 8980 6819 751 6172 30090 2344 927 2622 6016 63 1414 393 2503 12773 2574 227 3336 5631 1785 441 2099
internal_value=0.0244229 0.0407885 -0.00396763 0.0279896 0.0202493 0.0260422 0.00889135 0.0117588 0.00758102 0.037516 0.0429034 0.0158448 -0.0109766 -0.019441 0.0324417 -0.00936158 -0.00872629 -0.00668173 -0.00516633 0.00942362 -0.00746549 -0.0118228 -0.00017248 -0.0269572 0.061093 0.0621919 0.0641213 0.0592428 0.0613587
internal_weight=43828.8 27801.7 16027.1 17055.6 9413.5 6458.13 5653.76 4696.23 2955.37 7642.12 3699.18 3497.75 10373.4 2175.21 3942.95 931.191 8198.14 4941.89 957.528 129.439 828.09 3256.25 1198.48 1244.02 10746 6699.26 2755.47 4046.78 1784.3
internal_count=140207 56097 84110 40768 26486 15307 19887 15484 11179 14282 6536 10350 64223 15281 7746 4966 48942 30153 4403 486 3917 18789 5134 10315 15329 9453 3822 5876 2540
is_linear=0
shrinkage=0.05


Tree=22
num_leaves=30
num_cat=0
split_feature=6 6 5 5 8 1 5 5 8 3 5 3 1 1 5 3 1 7 1 3 1 3 1 0 3 3 3 3 2
split_gain=7447.31 2798.05 524.901 470.022 303.138 120.205 78.1018 92.0457 79.6922 72.1991 73.7888 72.1723 58.6693 50.4137 30.0987 22.643 319.303 12.4588 12.2686 36.0327 12.8767 10.9103 5.66823 5.54361 4.06356 3.81124 3.11534 9.43134 0.540433
threshold=1.0000000180025095e-35 1.5000000000000002 56.500000000000007 71.000000000000014 1.0000000180025095e-35 30.500000000000004 101.00000000000001 71.000000000000014 1.0000000180025095e-35 1.0000000180025095e-35 107.00000000000001 1.5000000000000002 33.500000000000007 63.500000000000007 35.000000000000007 2.5000000000000004 40.500000000000007 479091.00000000006 54.500000000000007 2.5000000000000004 83.500000000000014 1.5000000000000002 53.500000000000007 1.0000000180025095e-35 2.5000000000000004 1.5000000000000002 1.5000000000000002 2.5000000000000004 32.500000000000007
decision_type=2 2 2 2 2 2 2 2 2 2 2 2 2 2 2 2 2 2 2 2 2 2 2 2 2 2 2 2 2
left_child=2 22 11 4 5 -3 7 21 -9 28 -11 12 23 -6 -14 16 -13 -17 19 -8 -20 -4 24 -1 25 -2 -24 -28 -5
right_child=1 3 6 9 13 -7 18 8 -10 10 -12 15 14 -15 -16 17 -18 -19 20 -21 -22 -23 26 -25 -26 -27 27 -29 -30
leaf_value=-0.031309467355328253 0.05999421258251824 0.0022263327010103771 -0.0062055793018990025 0.055629438201235032 0.034575901609911704 0.01764851927132173 0.031987113899563178 0.024147780645037961 0.0087845732929209622 0.038570365003530227 0.02597862247941491 -0.0077895433675847286 -0.0042364280293884166 0.010682578576894237 -0.020982737304966217 -0.019120538605019336 0.10997386569618556 -0.010458548980282886 -0.010989116277514076 -0.0057172406557543277 0.030668713934792421 0.0030661537398691957 0.055849742537685799 -0.023303454980134308 0.059147516239865562 0.065122235973164924 0.068441372471891138 0.057638007311111343 0.066636203907919245
leaf_weight=551.34040629863739 1399.9906228482723 1650.5535538196564 493.66965585947037 167.50273862481117 2889.3598750382662 5396.4228825569153 77.345997840166092 1416.8977988660336 2094.0271683037281 5020.2787147164345 1540.8319643437862 4859.8615882992744 660.95254221558571 241.59414626657963 451.36101997643709 497.08253236114979 56.194024085998535 2615.886683806777 548.31979756057262 311.68477381765842 17.244486689567566 879.3769316971302 2214.8914722800255 427.3140651807189 3854.3052539527416 1287.5387616157532 324.80978375673294 1417.7230559289455 130.88115836679935
leaf_count=4979 2037 7259 2215 255 5731 14478 228 3785 6565 9157 3117 30090 3584 594 2695 3051 62 15105 2709 1413 53 3870 3336 3706 5631 1785 441 2099 177
internal_value=0.0233896 0.039139 -0.00378762 0.0266219 0.019797 0.0140381 0.00814898 0.010705 0.0149954 0.0367394 0.0356225 -0.0106746 -0.0189475 0.0327407 -0.0110587 -0.00851568 -0.00639775 -0.0118537 -0.0049225 0.00190626 -0.0096109 -0.000271212 0.0594417 -0.0278708 0.0605438 0.0624992 0.057589 0.0597307 0.0608838
internal_weight=43495.2 27536.7 15958.6 17037.4 10177.9 7046.98 5838.57 4883.97 3510.92 6859.49 6561.11 10120 2090.97 3130.95 1112.31 8029.02 4916.06 3112.97 954.595 389.031 565.564 1373.05 10499.3 978.654 6541.83 2687.53 3957.42 1742.53 298.384
internal_count=140207 56097 84110 40768 28062 21737 20838 16435 10350 12706 12274 63272 14964 6325 6279 48308 30152 18156 4403 1641 2762 6085 15329 8685 9453 3822 5876 2540 432
is_linear=0
shrinkage=0.05


Tree=23
num_leaves=30
num_cat=0
split_feature=6 6 5 5 8 1 5 5 5 8 3 1 1 3 5 5 3 1 3 2 7 7 1 0 1 3 3 3 3
split_gain=6814.6 2710.04 476.45 438.819 284.397 116.014 78.3825 71.0229 90.9257 70.8971 67.0904 56.6975 55.5573 43.0781 38.6245 27.8238 20.7584 286.855 15.0263 12.8957 12.6799 11.5685 5.69547 5.35547 5.01656 4.24425 3.83376 3.27147 9.8779
threshold=1.0000000180025095e-35 1.5000000000000002 56.500000000000007 77.000000000000014 1.0000000180025095e-35 30.500000000000004 103.50000000000001 98.500000000000014 77.000000000000014 1.0000000180025095e-35 1.5000000000000002 63.500000000000007 33.500000000000007 2.5000000000000004 83.000000000000014 35.000000000000007 2.5000000000000004 40.500000000000007 2.5000000000000004 33.500000000000007 1251526.5000000002 479091.00000000006 53.500000000000007 1.0000000180025095e-35 73.500000000000014 2.5000000000000004 1.5000000000000002 1.5000000000000002 2.5000000000000004
decision_type=2 2 2 2 2 2 2 2 2 2 2 2 2 2 2 2 2 2 2 2 2 2 2 2 2 2 2 2 2
left_child=2 22 10 4 5 -3 14 8 18 -8 12 -6 23 -10 -5 -14 17 -12 -4 20 -9 -18 25 -1 -21 26 -2 -24 -29
right_child=1 3 7 6 11 -7 9 19 13 -11 16 -13 15 -15 -16 -17 21 -19 -20 24 -22 -23 27 -25 -26 -27 -28 28 -30
leaf_value=-0.030481800179615093 0.058470887739007951 0.0021127687312666879 0.0076422167563263942 0.029335873576254778 0.033142654369996603 0.017134867062159102 0.017540193007427929 -0.0061268573821561976 0.023293739683258211 0.036222112724295034 -0.0074389115092855472 0.0095671039992381371 -0.0040355511108405807 0.010648269661771992 0.042348755953562384 -0.020207154166195396 -0.018395417434163321 0.10367199724010626 -0.0012418180884971228 -0.022145544764868248 0.0053733404153147937 -0.010002216511591703 0.054269271524927491 -0.022543010946610483 0.0062921367692952883 0.05758126059397544 0.06361705509146906 0.067161168954641748 0.056065628730215311
leaf_weight=538.38480173051357 1365.5724206715822 1652.3721450716257 786.14878708124161 714.22604049742222 3142.5144921094179 5794.6794391274452 910.66221404075623 606.75794042646885 1226.5592876821756 1167.2365857958794 4835.2260465323925 279.85105621814728 659.3058757930994 1506.1565361768007 3348.3051663935184 445.4825162962079 491.08028806746006 56.738786339759827 1200.0017206072807 111.24643470346928 393.32419952750206 2599.0054879039526 2166.7170838117599 419.9036063849926 17.003068760037422 3763.5598749816418 1253.0284108817577 314.74568593502045 1385.4904419481754
leaf_count=4979 2037 7259 3001 1392 6207 15266 1963 2693 3203 2140 30090 682 3584 4552 5859 2695 3051 62 5135 536 1649 15105 3336 3706 69 5631 1785 441 2099
internal_value=0.0224074 0.0375781 -0.00361524 0.0253354 0.0192927 0.0138033 0.0360217 0.00773018 0.010424 0.0280604 -0.0102196 0.031222 -0.0182559 0.0163376 0.0400772 -0.0105826 -0.00813828 -0.00610694 0.00227853 -0.00353345 -0.00160145 -0.0113477 0.0578874 -0.0270598 -0.0183299 0.0589958 0.0609818 0.0560273 0.0581989
internal_weight=43151.3 27259 15892.3 17009.8 10869.4 7447.05 6140.43 5847.2 4718.87 2077.9 10045.1 3422.37 2063.08 2732.72 4062.53 1104.79 7982.05 4891.96 1986.15 1128.33 1000.08 3090.09 10249.1 958.288 128.25 6382.16 2618.6 3866.95 1700.24
internal_count=140207 56097 84110 40768 29414 22525 11354 20838 15891 4103 63272 6889 14964 7755 7251 6279 48308 30152 8136 4947 4342 18156 15329 8685 605 9453 3822 5876 2540
is_linear=0
shrinkage=0.05


Tree=24
num_leaves=28
num_cat=0
split_feature=6 6 5 5 8 4 5 5 8 5 1 5 4 2 1 8 7 1 8 1 5 2 1 7 1 1 1
split_gain=6239.5 2625.17 432.427 406.321 260.077 126.915 85.7184 73.1212 68.0973 58.6899 51.6302 30.6026 25.2173 22.6807 21.5624 21.3385 21.0141 20.1176 14.3674 27.9992 17.4503 10.7461 8.48965 6.5703 5.7605 0.493154 2.7861
threshold=1.0000000180025095e-35 1.5000000000000002 65.000000000000014 77.000000000000014 1.0000000180025095e-35 1.0000000180025095e-35 97.500000000000014 107.00000000000001 1.0000000180025095e-35 83.000000000000014 63.500000000000007 83.000000000000014 1.0000000180025095e-35 5.5000000000000009 74.500000000000014 1.0000000180025095e-35 862320.50000000012 47.500000000000007 1.0000000180025095e-35 64.500000000000014 104.50000000000001 30.500000000000004 29.500000000000004 583991.00000000012 54.500000000000007 80.500000000000014 65.500000000000014
decision_type=2 2 2 2 2 2 2 2 2 2 2 2 2 2 2 2 2 2 2 2 2 2 2 2 2 2 2
left_child=2 24 12 4 5 -3 9 11 -9 14 -6 -5 21 17 -4 -11 -15 -14 20 -20 -8 22 -1 -23 -2 26 -26
right_child=1 3 6 7 10 -7 18 8 -10 15 -12 -13 13 16 -16 -17 -18 -19 19 -21 -22 23 -24 -25 25 -27 -28
leaf_value=-0.010092270983258678 0.057457878174106858 0.0038621614472904194 0.0036856687873244275 0.028011916628645436 0.031590430669536644 0.017694792475260766 0.014916706690084472 0.013344806020958742 0.034221034644548738 0.024729391948550047 0.0090913570105100594 0.039521351316425202 0.009490936171067289 -0.0038039537292656363 0.020982966183185767 0.014096646270226665 -0.012020560666583481 -0.0063346985319875614 -0.0013820549869185453 -0.023220478281369823 -0.0038880412114663493 -0.015249875289948898 -0.013999653871377122 -0.0048400871099004176 0.055243377400854825 0.059698664098891865 0.050826861615008823
leaf_weight=3128.8982309773564 6554.51448148489 2489.2436632812023 1561.7112898379564 710.77075754106045 3132.4370379149914 4974.2302176505327 212.42568019032478 693.59310273826122 905.02314773201942 771.60040575265884 279.87789753079414 3792.2136841267347 399.55004020035267 1582.19648180902 201.88894821703434 1249.4966948032379 1535.2159892767668 399.62882091104984 606.5067737698555 191.72755019366741 288.79562832415104 179.24758270382881 2563.9536389783025 956.55589158087969 2253.5797599852085 240.74206613004208 948.43397115170956
leaf_count=21499 9966 9958 5531 1392 6207 12567 657 1537 1679 1836 682 6746 2026 8410 591 3618 8309 2104 2563 892 1340 1214 17263 6257 3495 352 1516
internal_value=0.0214697 0.0360925 -0.00345018 0.0241181 0.0183181 0.0130837 0.00856164 0.0344465 0.0251927 0.0123642 0.0297519 0.0377185 -0.00913424 -0.00593036 0.00568838 0.0181774 -0.00785585 0.00158049 -0.00251483 -0.00667462 0.00410872 -0.0109694 -0.0118566 -0.0065082 0.0564182 0.0544053 0.053969
internal_weight=42804.1 26974.7 15829.4 16977.4 10875.8 7463.47 5084.15 6101.6 1598.62 3784.7 3412.31 4502.98 10745.2 3916.59 1763.6 2021.1 3117.41 799.179 1299.46 798.234 501.221 6828.66 5692.85 1135.8 9997.27 3442.76 3202.01
internal_count=140207 56097 84110 40768 29414 22525 17028 11354 3216 11576 6889 8138 67082 20849 6122 5454 16719 4130 5452 3455 1997 46233 38762 7471 15329 5363 5011
is_linear=0
shrinkage=0.05


Tree=25
num_leaves=28
num_cat=0
split_feature=6 6 5 5 4 5 3 3 3 3 5 5 4 8 5 3 3 3 5 5 7 8 0 7 3 3 5
split_gain=5716.29 2542.13 395.332 378.198 213.092 216.696 95.5307 414.511 76.9191 62.9145 58.8986 83.1222 56.5256 54.2428 37.3917 25.0783 24.685 20.2377 89.969 13.6349 12.272 11.5626 11.2557 10.9924 5.65493 23.8828 1.13996
threshold=1.0000000180025095e-35 1.5000000000000002 56.500000000000007 61.500000000000007 1.0000000180025095e-35 35.000000000000007 2.5000000000000004 1.5000000000000002 1.5000000000000002 1.5000000000000002 97.500000000000014 83.000000000000014 1.0000000180025095e-35 1.0000000180025095e-35 35.000000000000007 2.5000000000000004 2.5000000000000004 2.5000000000000004 47.000000000000007 121.50000000000001 2089844.0000000002 1.0000000180025095e-35 1.0000000180025095e-35 479091.00000000006 1.5000000000000002 2.5000000000000004 89.000000000000014
decision_type=2 2 2 2 2 2 2 2 2 2 2 2 2 2 2 2 2 2 2 2 2 2 2 2 2 2 2
left_child=2 24 9 4 8 -6 7 -5 -3 12 11 16 22 -8 -14 -13 -4 18 -11 21 -21 -12 -1 -19 26 -26 -2
right_child=1 3 10 6 5 -7 13 -9 -10 17 19 15 14 -15 -16 -17 -18 23 -20 20 -22 -23 -24 -25 25 -27 -28
leaf_value=-0.028826797779836544 0.054307368620118847 -0.011083053416699885 0.0096246679278270512 0.02915502163617157 0.027909296158400689 0.0076925082516210719 0.019906591651603842 0.073141069881472412 0.0089681584564095494 -0.0058251033746903515 0.0058183845517648042 0.023315250650220845 0.0018656600153958529 0.031386077175042659 -0.019079158530776592 0.012101701858971912 -0.00042380888941545136 -0.017467171969340181 0.089909841794971662 -0.022133190412687291 0.01083982306557758 -0.0045070522613230172 -0.018722745602637269 -0.0092276794227079354 0.061897497620229947 0.054270543290685272 0.051029493701321677
leaf_weight=650.9019460529089 2005.3930718451738 598.94338248670101 1023.1546698361635 3172.4652210623026 4055.0664938092232 1971.7514043301344 2092.8382994681597 644.36215204000473 2342.9476543068886 4812.6057713031769 448.85639226436615 921.2959441691637 476.52908976376057 2061.6440306305885 382.82690641283989 1105.9796181619167 1512.6816921234131 483.39763187617064 22.611014574766159 136.35436697304249 34.06304082274437 677.93606258928776 513.16335506737232 2570.3663834929466 1482.0949167907238 4898.3493466824293 1359.4860879927874
leaf_count=5886 3160 2587 3671 6189 9113 5154 4526 813 8506 30124 1733 2316 2344 3880 2338 3138 6261 3051 28 723 159 2837 4396 15105 2226 7730 2213
internal_value=0.0205721 0.0346759 -0.00329104 0.0229662 0.0159167 0.0213001 0.0308915 0.0366165 0.00488076 -0.00937687 0.00700235 0.00967403 -0.0172406 0.0256162 -0.00748735 0.0172166 0.00363477 -0.00735587 -0.00533914 -0.00239553 -0.0154875 -0.00039017 -0.0244141 -0.0105431 0.0550214 0.0560617 0.0530153
internal_weight=42458.1 26685.3 15772.7 16940 8968.71 6026.82 7971.31 3816.83 2941.89 9912.4 5860.32 4563.11 2023.42 4154.48 859.356 2027.28 2535.84 7888.98 4835.22 1297.21 170.417 1126.79 1164.07 3053.76 9745.32 6380.44 3364.88
internal_count=140207 56097 84110 40768 25360 14267 15408 7002 11093 63272 20838 15386 14964 8406 4682 5454 9932 48308 30152 5452 882 4570 10282 18156 15329 9956 5373
is_linear=0
shrinkage=0.05


Tree=26
num_leaves=28
num_cat=0
split_feature=6 6 5 8 5 4 5 5 8 1 1 5 5 5 7 1 5 4 5 1 7 5 1 8 1 1 1
split_gain=5238.47 2461.33 359.991 357.016 231.191 108.006 89.7287 83.9621 56.6173 55.1074 56.9212 35.2627 31.4543 22.7975 17.2995 15.7324 14.7702 32.3831 17.6004 14.5153 14.3785 12.4517 11.4243 10.4368 6.12531 0.513231 3.60637
threshold=1.0000000180025095e-35 1.5000000000000002 71.000000000000014 1.0000000180025095e-35 71.000000000000014 1.0000000180025095e-35 97.500000000000014 107.00000000000001 1.0000000180025095e-35 62.500000000000007 28.500000000000004 55.500000000000007 83.000000000000014 74.500000000000014 3024905.0000000005 61.500000000000007 37.500000000000007 1.0000000180025095e-35 43.500000000000007 77.500000000000014 1483042.0000000002 121.50000000000001 77.500000000000014 1.0000000180025095e-35 53.500000000000007 80.500000000000014 65.500000000000014
decision_type=2 2 2 2 2 2 2 2 2 2 2 2 2 2 2 2 2 2 2 2 2 2 2 2 2 2 2
left_child=2 24 11 4 5 -3 8 -6 14 10 -5 16 -10 -11 -4 20 17 -1 -18 -17 -13 23 -23 -8 -2 26 -26
right_child=1 3 6 9 7 -7 21 -9 12 13 -12 15 -14 -15 -16 19 18 -19 -20 -21 -22 22 -24 -25 25 -27 -28
leaf_value=-0.01005556628463182 0.05484899903778287 0.0025850890293818898 0.022451655623048201 0.00059999148932984956 0.030930271310630243 0.015543184843993958 0.0055161504299199755 0.011327730014232363 -0.0011107225512756247 0.0083336808142474121 0.033878993347110538 -0.00087171837484054961 0.012432329061610379 0.025233494644480645 -0.010040010096039435 -0.015122293705530272 -0.023930208153668839 -0.0028271390350060816 -0.010246561013538519 0.0067279327665429964 0.012737198644693571 -0.019463786027554147 0.020333925585486367 -0.0042910212755380593 0.05259698469061419 0.057006485837401914 0.047916836042209185
leaf_weight=6529.8351059854031 5901.4674158990383 2457.1883926838636 1248.7473854124546 131.77155701816082 2695.4577820748091 4657.4239611327648 449.86345328390598 689.19986046850681 649.06969685852528 299.10728146135807 5354.6105587780476 908.69684540480375 1258.5561392605305 615.67450839281082 41.215892940759659 293.05243320018053 340.55295968055725 2034.3155295848846 771.10332988202572 100.96689730882645 244.64285500347614 150.19892686605453 18.742026910185814 676.60214857757092 2457.8320855796337 229.0180017054081 905.89421601593494
leaf_count=44995 9453 9891 3294 395 5141 11846 1733 1537 2261 724 10010 4131 3618 1224 128 1433 2083 10708 4509 435 1063 803 79 2837 4008 352 1516
internal_value=0.0197144 0.0333214 -0.00313941 0.021873 0.016193 0.01107 0.00881788 0.0269482 0.0133129 0.0311809 0.0330804 -0.00792711 0.0078277 0.0197397 0.0213986 -0.0009168 -0.00904769 -0.00833971 -0.0144757 -0.0095155 0.00203191 -0.00228067 -0.0148526 -0.00037088 0.0536913 0.0517591 0.0513669
internal_weight=42110.8 26394.6 15716.2 16900.4 10499.3 7114.61 4493 3384.66 3197.59 6401.16 5486.38 11223.2 1907.63 914.782 1289.96 1547.36 9675.81 8564.15 1111.66 394.019 1153.34 1295.41 168.941 1126.47 9494.21 3592.74 3363.73
internal_count=140207 56097 84110 40768 28415 21737 14753 6678 9301 12353 10405 69357 5879 1948 3422 7062 62295 55703 6592 1868 5194 5452 882 4570 15329 5876 5524
is_linear=0
shrinkage=0.05


Tree=27
num_leaves=28
num_cat=0
split_feature=6 6 5 5 8 4 5 5 3 4 3 3 8 3 5 3 8 5 5 3 2 5 0 7 3 3 5
split_gain=4802.99 2381.19 336.773 325.926 211.042 89.068 80.6464 66.2829 57.9519 64.0042 52.3072 281.511 50.0815 43.0141 30.3096 175.625 26.8922 25.3928 22.1811 19.632 11.7268 10.1826 9.00211 7.16713 5.94257 25.5939 1.25343
threshold=1.0000000180025095e-35 1.5000000000000002 77.000000000000014 71.000000000000014 1.0000000180025095e-35 1.0000000180025095e-35 97.500000000000014 113.00000000000001 1.5000000000000002 1.0000000180025095e-35 2.5000000000000004 1.5000000000000002 1.0000000180025095e-35 1.0000000180025095e-35 55.500000000000007 2.5000000000000004 1.0000000180025095e-35 17.000000000000004 35.000000000000007 2.5000000000000004 33.500000000000007 104.50000000000001 1.0000000180025095e-35 841721.50000000012 1.5000000000000002 2.5000000000000004 89.000000000000014
decision_type=2 2 2 2 2 2 2 2 2 2 2 2 2 2 2 2 2 2 2 2 2 2 2 2 2 2 2
left_child=3 24 4 8 5 -3 10 13 9 22 11 -5 -12 -4 19 -16 -9 -6 -11 -10 21 -8 -1 -22 26 -26 -2
right_child=1 2 7 6 17 -7 20 16 14 18 12 -13 -14 -15 15 -17 -18 -19 -20 -21 23 -23 -24 -25 25 -27 -28
leaf_value=-0.026742180451717869 0.051659764705877347 0.0032084006411628439 0.05436124919007182 0.01251787149226828 0.015888242759113099 0.014768463689378751 0.0051081623427048483 0.0084728205260426459 -0.0047300202380161421 0.0019145394948961725 0.016722018531726803 0.088251345711730753 -0.00021106283169734146 0.031630295292297994 0.095406199167284156 -0.0021768738785426091 0.025591368872693251 0.02786842565436733 -0.011606676510148394 -0.0099416103313610654 -0.036141913829916494 -0.004420669207820146 -0.017732091049313704 -0.0092989078354060103 0.059673675208128753 0.051608857601010943 0.048354239640629237
leaf_weight=652.24743007868528 1905.5883373767138 2500.615315720439 220.18931891024113 1282.9221518337727 535.83753436803818 5001.124031573534 474.44122721254826 412.36345106363297 4780.4415512979031 476.27282702922821 752.09025920927525 133.77498424053192 1036.9091509580612 4822.1594079881907 46.406743094325066 945.31180320680141 523.98699101805687 2838.4312311708927 830.26094815135002 2912.1285451129079 31.203943684697151 679.04018300771713 521.30633661150932 108.94007141888142 1397.1058272719383 4649.1470013707876 1293.4144134968519
leaf_count=5971 3160 9958 333 3572 1186 12567 1612 937 30146 2344 2109 149 3471 9055 57 4413 1029 5703 4377 17562 158 3193 4487 489 2226 7730 2213
internal_value=0.0188936 0.0320285 0.0208389 -0.00299397 0.0155935 0.0109171 0.00836467 0.0303723 -0.00757235 -0.0143116 0.0126148 0.0197875 0.0069182 0.0326449 -0.00564471 0.00257714 0.0180884 0.025977 -0.00668196 -0.00670517 -0.00217032 -0.000498593 -0.0227785 -0.015718 0.0524184 0.0534922 0.0503555
internal_weight=41763.7 26100 16854.7 15663.7 10876 7501.74 4499.32 5978.7 11164.4 2480.09 3205.7 1416.7 1789 5042.35 8684.29 991.719 936.35 3374.27 1306.53 7692.57 1293.63 1153.48 1173.55 140.144 9245.26 6046.25 3199
internal_count=140207 56097 40768 84110 29414 22525 14753 11354 69357 17179 9301 3721 5580 9388 52178 4470 1966 6889 6721 47708 5452 4805 10458 647 15329 9956 5373
is_linear=0
shrinkage=0.05


Tree=28
num_leaves=30
num_cat=0
split_feature=6 6 5 5 8 1 5 3 8 3 3 1 1 1 5 1 8 5 3 1 1 7 1 3 3 0 3 3 1
split_gain=4403.11 2302.95 311.732 297.146 192.958 87.9301 63.4937 55.2546 53.7465 50.2784 616.484 58.9961 48.8003 43.0982 34.4217 27.4051 22.6437 36.4792 17.8243 247.85 16.1902 10.352 6.50721 5.62777 6.01641 4.69991 3.29273 12.1696 3.44447
threshold=1.0000000180025095e-35 1.5000000000000002 77.000000000000014 56.500000000000007 1.0000000180025095e-35 63.500000000000007 103.50000000000001 1.5000000000000002 1.0000000180025095e-35 2.5000000000000004 1.5000000000000002 75.500000000000014 33.500000000000007 64.500000000000014 83.000000000000014 51.500000000000007 1.0000000180025095e-35 71.000000000000014 2.5000000000000004 40.500000000000007 54.500000000000007 479091.00000000006 54.500000000000007 2.5000000000000004 1.5000000000000002 1.0000000180025095e-35 1.5000000000000002 2.5000000000000004 80.500000000000014
decision_type=2 2 2 2 2 2 2 2 2 2 2 2 2 2 2 2 2 2 2 2 2 2 2 2 2 2 2 2 2
left_child=3 22 4 7 5 -3 14 12 -8 10 11 -5 25 -6 -4 -14 17 -11 19 -9 -18 -20 23 24 -2 -1 28 -28 -24
right_child=1 2 6 9 13 -7 8 18 -10 16 -12 -13 15 -15 -16 -17 20 -19 21 -21 -22 -23 26 -25 -26 -27 27 -29 -30
leaf_value=-0.027668366070534273 0.051671674205294428 0.012018505037483775 0.02255317154730152 -0.00089747010506486104 0.026374776359186038 -0.0072398947341937112 0.012646265886070771 -0.0056842358922308571 0.029104609024487665 -0.0060634480011508372 0.092007243968793853 0.017311053046056818 0.00076572810065652307 0.0047266694008203909 0.034982401015323447 -0.015382734579285177 -0.0044557758746350843 0.011726496257192198 -0.016129280893467199 0.097557331400799654 0.005755055023667595 -0.0080527041846178548 0.046292032708831116 0.050791918999369648 0.057663330369811264 -0.020006879144062184 0.062370931460264484 0.048827184575275337 0.054577974096245312
leaf_weight=496.95178709179163 1260.1610737890005 6864.4235025048256 692.84366612136364 1723.8951827138662 3112.4708661139011 647.30128061771393 896.16929048299789 4714.041800737381 1124.5945277661085 398.59083057940006 214.52747046947479 597.39084683358669 458.54987391829491 249.41149142384529 3222.1173412650824 612.32496900111437 1370.5460701435804 1027.6470471322536 472.64759051054716 56.799991130828857 539.30348059535027 2527.7096679806709 1640.6484053432941 3514.1683212220669 1111.9623554497957 396.2399603202939 240.87010896205902 1013.8863692730665 217.37870265543461
leaf_count=4979 2151 20662 1392 6233 6273 1863 1963 30090 2140 1830 246 1889 2555 616 5859 3724 5330 3226 3051 62 2084 15105 2870 5984 1831 3706 395 1746 352
internal_value=0.0181093 0.0307864 0.019854 -0.00285521 0.0148182 0.0103573 0.0290705 -0.00821266 0.0218263 0.00602676 0.0113307 0.00379944 -0.0157033 0.0247728 0.032796 -0.00847908 0.00199043 0.00675265 -0.00631576 -0.00441332 -0.00156896 -0.00933545 0.0511978 0.0523163 0.0545283 -0.0243243 0.0490493 0.0515257 0.0473212
internal_weight=41415.6 25808.4 16809.3 15607.2 10873.6 7511.72 5935.72 9735.27 2020.76 5871.9 2535.81 2321.29 1964.07 3361.88 3914.96 1070.87 3336.09 1426.24 7771.2 4770.84 1909.85 3000.36 8999.08 5886.29 2372.12 893.192 3112.78 1254.76 1858.03
internal_count=140207 56097 40768 84110 29414 22525 11354 63272 4103 20838 8368 8122 14964 6889 7251 6279 12470 5056 48308 30152 7414 18156 15329 9966 3982 8685 5363 2141 3222
is_linear=0
shrinkage=0.05


Tree=29
num_leaves=27
num_cat=0
split_feature=6 6 5 5 8 4 3 5 3 4 3 3 5 5 5 8 5 3 5 5 7 0 3 3 2 5
split_gain=4035.36 2227.32 288.972 269.584 176.828 81.3923 62.2549 64.557 51.092 47.1997 45.4263 563.067 44.713 31.1941 23.4653 20.4058 32.8249 16.2876 72.5246 13.3309 10.4682 10.2038 6.0991 26.2818 3.30735 1.36441
threshold=1.0000000180025095e-35 1.5000000000000002 77.000000000000014 56.500000000000007 1.0000000180025095e-35 1.0000000180025095e-35 1.0000000180025095e-35 107.00000000000001 1.5000000000000002 1.0000000180025095e-35 2.5000000000000004 1.5000000000000002 95.000000000000014 35.000000000000007 17.000000000000004 1.0000000180025095e-35 71.000000000000014 2.5000000000000004 47.000000000000007 98.500000000000014 219371.50000000003 1.0000000180025095e-35 1.5000000000000002 2.5000000000000004 32.500000000000007 89.000000000000014
decision_type=2 2 2 2 2 2 2 2 2 2 2 2 2 2 2 2 2 2 2 2 2 2 2 2 2 2
left_child=3 22 4 8 5 -3 24 -8 9 21 11 12 -5 -11 -6 16 -12 18 -10 -17 -19 -1 25 -24 -4 -2
right_child=1 2 6 10 14 -7 7 -9 17 13 15 -13 -14 -15 -16 19 -18 20 -20 -21 -22 -23 23 -25 -26 -27
leaf_value=-0.026288736352047565 0.049237664465634039 0.0024765975395193217 0.045057906385498434 0.0077542388338878408 0.013920882730167689 0.013500139321197081 0.029936665082635251 0.017754093340615194 -0.0046491755501093836 0.0023072810444138988 -0.0057799959819888353 0.088241378188662831 -0.0079668827562971393 -0.017028127567024216 0.025458161335502501 0.00057553278118903015 0.011106866086824626 0.018592133308768931 0.081670998673913253 -0.0099247118683791057 -0.0092386201422032885 -0.016417298910258307 0.057576660198108247 0.049185805281375172 0.059941118179547073 0.045891277811491882
leaf_weight=608.39118749648333 1808.7799604386091 2515.9760462343693 135.52957203984261 1711.0914588868618 532.92617782950401 5011.9701034873724 4153.2907347679138 1489.568018451333 4730.5266751497984 474.05452197045088 397.36417654156685 212.63250136375427 612.61262848973274 369.77620480209589 2815.5599433034658 1534.4259239286184 1030.7610215693712 32.317542634904385 22.401869311928749 374.27599067986012 2950.1683471426368 489.38057714700699 1309.1934310495853 4408.8204244226217 113.82622487843037 1229.8233283907175
leaf_count=5886 3160 9958 223 5574 1186 12567 7852 3117 30124 2344 1830 246 2548 2338 5703 5652 3226 193 28 1762 17963 4396 2226 7730 162 2213
internal_value=0.0173559 0.0295873 0.0189101 -0.00272278 0.0140743 0.00981765 0.0278284 0.0267286 -0.00785097 -0.0151004 0.00572643 0.0107674 0.00360588 -0.0061857 0.0236319 0.00189023 0.00640617 -0.00602772 -0.00420694 -0.00149156 -0.00892418 -0.0219278 0.0500243 0.0511272 0.0522904 0.0479155
internal_weight=41075.4 25525.3 16768.6 15550.2 10876.4 7527.95 5892.21 5642.86 9677.02 1941.6 5873.16 2536.34 2323.7 843.831 3348.49 3336.83 1428.13 7735.41 4752.93 1908.7 2982.49 1097.77 8756.62 5718.01 249.356 3038.6
internal_count=140207 56097 40768 84110 29414 22525 11354 10969 63272 14964 20838 8368 8122 4682 6889 12470 5056 48308 30152 7414 18156 10282 15329 9956 385 5373
is_linear=0
shrinkage=0.05


Tree=30
num_leaves=31
num_cat=0
split_feature=6 6 8 5 5 1 5 5 3 3 1 1 3 3 1 5 3 1 3 5 1 1 1 3 3 7 3 3 1 5
split_gain=3699.94 2150.78 268.511 247.005 160.747 89.3892 67.0529 66.3197 56.3801 47.9844 54.6387 44.6684 40.9279 215.212 31.7394 23.7926 129.901 23.7044 15.1176 10.7972 11.4868 11.4387 6.86814 5.99338 6.07352 4.28223 3.60362 13.1485 3.66638 1.46874
threshold=1.0000000180025095e-35 1.5000000000000002 1.0000000180025095e-35 71.000000000000014 71.000000000000014 63.500000000000007 97.500000000000014 104.50000000000001 1.0000000180025095e-35 1.5000000000000002 33.500000000000007 27.500000000000004 2.5000000000000004 1.5000000000000002 48.500000000000007 55.500000000000007 2.5000000000000004 61.500000000000007 2.5000000000000004 119.00000000000001 49.500000000000007 83.500000000000014 54.500000000000007 2.5000000000000004 1.5000000000000002 2159117.5000000005 1.5000000000000002 2.5000000000000004 80.500000000000014 53.000000000000007
decision_type=2 2 2 2 2 2 2 2 2 2 2 2 2 2 2 2 2 2 2 2 2 2 2 2 2 2 2 2 2 2
left_child=3 22 4 9 5 -3 12 -6 29 10 25 -10 13 -5 -14 18 -17 -12 -11 21 -21 -8 23 24 -2 -1 28 -28 -24 -4
right_child=1 2 8 6 7 -7 19 -9 11 15 17 -13 14 -15 -16 16 -18 -19 -20 20 -22 -23 26 -25 -26 -27 27 -29 -30 -31
leaf_value=-0.021920136590949393 0.049454592864729648 0.010573365723726528 0.038617828064828635 0.011287439251490684 0.026151196471056209 -0.0097802928469288997 -0.00099747345276798155 0.0094186516008920688 -0.011222913951493911 -0.0040925400340142467 -0.00039655156397571382 0.025795610461724183 -0.0021296449862753804 0.078912447202126493 0.011465642352690165 0.082304778937031545 -0.0016886347638113367 -0.012816074014935711 -0.0087001738289151833 0.02403172606838485 -0.015806858547818266 0.036124339476747869 0.043822113101547489 0.048472740102551842 0.055579813117572652 -0.03707012151885667 0.060812558542279155 0.046424496295624069 0.052357441221306401 0.05376224870188534
leaf_weight=809.74803924560547 1192.8155470192432 6576.111140742898 48.540828689932823 1288.6569158583879 2533.0789556205273 585.99342766404152 1051.5120839178562 777.01660463213921 81.522185951471329 4733.2836253345013 698.16253539919853 5942.6958976835012 707.64705364406109 127.56145475804806 1086.8566606789827 46.336389273405075 940.27815851569176 853.00612927228212 2860.0390420854092 18.008363232016563 202.84642434120178 19.107343077659607 1561.6837166547775 3329.4979560822248 1042.0661711394787 52.92843871563673 224.16545048356056 962.16293492913246 205.99847720563412 175.31391404569149
leaf_count=8142 2151 20005 85 3572 4944 1732 4249 1734 262 30146 3713 11738 2323 149 3257 57 4413 4779 17562 61 1089 53 2870 5984 1831 545 395 1746 352 268
internal_value=0.0166353 0.0284422 0.0180202 -0.00259591 0.0131215 0.00890562 0.00726631 0.0222319 0.0262237 -0.00663538 -0.0128614 0.0252909 0.0111343 0.0174849 0.00610776 -0.00488103 0.00241876 -0.00723461 -0.00583 -0.00235179 -0.012363 -0.000266138 0.0488894 0.0500528 0.0523595 -0.0229366 0.0466644 0.0492446 0.044877 0.0508639
internal_weight=40734.6 25238.7 16720.3 15496 10472.2 7162.1 4502.2 3310.1 6248.07 10993.8 2413.85 6024.22 3210.72 1416.22 1794.5 8579.94 986.615 1551.17 7593.32 1291.47 220.855 1070.62 8518.39 5564.38 2234.88 862.676 2954.01 1186.33 1767.68 223.855
internal_count=140207 56097 40768 84110 28415 21737 14753 6678 12353 69357 17179 12000 9301 3721 5580 52178 4470 8492 47708 5452 1150 4302 15329 9966 3982 8687 5363 2141 3222 353
is_linear=0
shrinkage=0.05


Tree=31
num_leaves=28
num_cat=0
split_feature=6 6 5 5 8 1 5 5 0 1 1 4 1 1 4 5 1 1 1 2 2 1 2 1 1 1 1
split_gain=3391.55 2076.26 256.259 223.785 155.667 79.9105 74.4695 60.6439 53.2306 43.6042 38.7128 23.5613 24.2844 35.0861 22.2361 21.6762 17.9817 16.264 19.422 13.7285 11.4106 11.3917 10.9352 9.32119 6.94145 0.973486 5.44883
threshold=1.0000000180025095e-35 1.5000000000000002 83.000000000000014 71.000000000000014 1.0000000180025095e-35 33.500000000000007 101.00000000000001 95.000000000000014 1.0000000180025095e-35 60.500000000000007 74.500000000000014 1.0000000180025095e-35 61.500000000000007 78.500000000000014 2.5000000000000004 83.000000000000014 66.500000000000014 62.500000000000007 81.500000000000014 32.500000000000007 33.500000000000007 30.500000000000004 10.500000000000002 31.500000000000004 53.500000000000007 64.500000000000014 69.500000000000014
decision_type=2 2 2 2 2 2 2 2 2 2 2 2 2 2 2 2 2 2 2 2 2 2 2 2 2 2 2
left_child=3 24 4 11 5 -3 16 10 -8 -6 15 19 14 -14 -13 -5 -4 20 -19 23 -9 -21 -12 -1 -2 -26 -27
right_child=1 2 6 7 9 -7 8 17 -10 -11 22 12 13 -15 -16 -17 -18 18 -20 21 -22 -23 -24 -25 25 26 -28
leaf_value=-0.0078354472327418264 0.049061094639413605 0.00085767642642674497 0.033443391979783611 0.0031665548152790511 0.02364794695090543 0.012160255757898253 0.0078617531018697721 0.0037667181982538067 0.024693831414113698 0.0067260688394764866 0.043757957656349704 -0.00085214202439822407 -0.017037379962135175 0.011662179558434675 -0.017432362667717239 0.012440424208129299 0.022554943097846357 -0.013530609327412025 0.018474434539975486 -0.0078409513237910882 -0.013057022845330619 0.0044310202582060936 0.021587437591840231 -0.01237956377671528 0.0467307433281067 0.037422532035165254 0.046188897162347947
